
// a few things don't have var in front of them - they update already existing variables the game needs
lanesSide = 3;
patchesAhead = 40;
patchesBehind = 5;
trainIterations = 100000;

var num_inputs = (lanesSide * 2 + 1) * (patchesAhead + patchesBehind);
var num_actions = 5;
var temporal_window = 0;
var network_size = num_inputs * temporal_window + num_actions * temporal_window + num_inputs;

var layer_defs = [];
layer_defs.push({
    type: 'input',
    out_sx: 1,
    out_sy: 1,
    out_depth: network_size
});

layer_defs.push({
    type: 'fc',
    num_neurons: 50,
    activation: 'tanh'
});

layer_defs.push({
    type: 'fc',
    num_neurons: 50,
    activation: 'relu'
});


layer_defs.push({
    type: 'regression',
    num_neurons: num_actions
});

var tdtrainer_options = {
    learning_rate: 0.001,
    momentum: 0.0,
    batch_size: 128,
    l2_decay: 0.01
};

var opt = {};
opt.temporal_window = temporal_window;
opt.experience_size = 3000;
opt.start_learn_threshold = 500;
opt.gamma = 0.95;
opt.learning_steps_total = 10000;
opt.learning_steps_burnin = 1000;
opt.epsilon_min = 0.2;
opt.epsilon_test_time = 0.0;
opt.layer_defs = layer_defs;
opt.tdtrainer_options = tdtrainer_options;

brain = new deepqlearn.Brain(num_inputs, num_actions, opt);

learn = function (state, lastReward) {
    brain.backward(lastReward);
    var action = brain.forward(state);

    draw_net();
    draw_stats();

    return action;
}


/*###########*/
if (brain) {
brain.value_net.fromJSON({"layers":[{"out_depth":315,"out_sx":1,"out_sy":1,"layer_type":"input"},{"out_depth":50,"out_sx":1,"out_sy":1,"layer_type":"fc","num_inputs":315,"l1_decay_mul":0,"l2_decay_mul":1,"filters":[{"sx":1,"sy":1,"depth":315,"w":{"0":-0.008456981813475208,"1":-0.044489316720961083,"2":0.008778561974759836,"3":-0.062067130453117514,"4":0.047386452356629284,"5":-0.10822631739801104,"6":-0.04743892949564356,"7":0.018322690970440626,"8":-0.07176886405331391,"9":0.037889094951197494,"10":-0.038130787002422346,"11":0.1422327191156183,"12":0.00432421895250141,"13":-0.015242914340206472,"14":0.07424380141074177,"15":0.08527502423913493,"16":0.07496538646797284,"17":0.02926468095447446,"18":0.02143211859587848,"19":0.026476596580270167,"20":-0.07327013111522203,"21":0.0352105560551898,"22":0.009109691039782224,"23":0.11242949547545433,"24":-0.1694327164074527,"25":-0.03446188326788262,"26":0.042465924822342856,"27":0.07357429352038773,"28":0.08353542296375664,"29":0.11752050763161825,"30":0.036501099724571745,"31":-0.1539772717844654,"32":-0.07476214961007885,"33":-0.0006844399217016908,"34":-0.03255690442405882,"35":0.10768955991414805,"36":-0.02622140288350514,"37":-0.11386931387802386,"38":-0.13649830038655006,"39":-0.07910828253267374,"40":-0.1444561865360525,"41":0.012374780678453528,"42":0.014030930004264018,"43":-0.10451344041684313,"44":-0.10010770663315219,"45":-0.03254583719346199,"46":0.01729469429169343,"47":0.03278640684684956,"48":0.06829627829944257,"49":0.013469295312171203,"50":-0.004708455750547931,"51":-0.016305389710591804,"52":0.04609069094254311,"53":0.0015886311438808062,"54":0.025237056217621585,"55":-0.005733074422446006,"56":0.022853235772616845,"57":0.014272872127198445,"58":0.010482875697023886,"59":0.10123318305061385,"60":0.011927057124078884,"61":-0.06359602005184614,"62":-0.07156456804171817,"63":-0.09584019903416716,"64":-0.03738572821805229,"65":0.08984302278451767,"66":0.12858017086190257,"67":0.04991200284539687,"68":-0.088294935289208,"69":0.008304162312587918,"70":0.016643399810178552,"71":-0.060960861447170625,"72":0.004162597638620344,"73":0.004926633600148043,"74":0.04916268831789131,"75":-0.06925748126383156,"76":0.06777372038487509,"77":0.007242955396570283,"78":0.008958668234574875,"79":-0.019459204777714283,"80":0.08962855846439456,"81":-0.05855126336205438,"82":-0.09262032536436879,"83":-0.13944483854356562,"84":0.05272684345135878,"85":-0.024478860058541614,"86":-0.00528589810463132,"87":-0.019114479107582603,"88":-0.08565417285100747,"89":-0.06790452619575017,"90":-0.026720166268533033,"91":0.0023053340661841346,"92":-0.11966571641637817,"93":0.08842034632324201,"94":0.10334325169383306,"95":-0.06281691779872217,"96":0.0008021001160149412,"97":0.060233378760949925,"98":-0.0004759067959257035,"99":-0.10407516602926405,"100":0.00330235786786654,"101":0.039320429727626054,"102":-0.002369056592409682,"103":0.024906988026569307,"104":-0.0225023216745318,"105":-0.08971882546072038,"106":0.05884749426653016,"107":-0.01525400894034134,"108":0.02603225732630582,"109":-0.01646147670984411,"110":-0.08857514114762374,"111":-0.010863865644748649,"112":0.010893590670089793,"113":0.12823118628179084,"114":-0.004147457231002265,"115":0.07099603019866531,"116":0.11700833763892383,"117":-0.04042943090048138,"118":0.06926213788276349,"119":-0.05505563907260297,"120":-0.054257458578562914,"121":-0.06152179933765356,"122":-0.07693701590339617,"123":0.05855465553999741,"124":-0.09308308731155117,"125":0.11201043225098938,"126":0.02989586629379723,"127":0.013920998759293871,"128":0.033579216538646234,"129":0.15062446974246665,"130":0.0711550782268614,"131":-0.03539174344526641,"132":-0.06581324718826403,"133":-0.13645292107698753,"134":0.10828455094170476,"135":0.01848428752644051,"136":0.1273321157422066,"137":-0.02144987380406466,"138":-0.1242070350967704,"139":-0.06483293113315013,"140":-0.03825563751799983,"141":-0.03426860943446384,"142":-0.018812949806999043,"143":0.05462897025414579,"144":0.014685625657667302,"145":-0.04836132968332909,"146":-0.025533152399404527,"147":0.04252959739909972,"148":0.04668726994551766,"149":0.06110793705637765,"150":0.148889118565435,"151":0.06351018063649501,"152":-0.11528670663176462,"153":-0.0010908734847881426,"154":0.0439313033166804,"155":0.06067404591005185,"156":0.026581352923957486,"157":0.036880707563801386,"158":-0.05674536573788448,"159":-0.13314290486993374,"160":-0.028477842496389138,"161":-0.0076158844734263865,"162":0.054789029167874474,"163":-0.008891145985174391,"164":0.15699992789626913,"165":0.011500792389272993,"166":-0.08918961852785477,"167":-0.0339118316379046,"168":0.01652839161768948,"169":-0.08326452466359469,"170":0.08541415652752049,"171":0.16955353574417398,"172":0.0458150779716158,"173":-0.13522473042209446,"174":0.02689210164832837,"175":-0.08407303111426055,"176":-0.006410852523365113,"177":0.07365161188199641,"178":0.18845432007796387,"179":0.008535928841565125,"180":-0.11605664341670956,"181":-0.03198008591342488,"182":-0.0072292619641934515,"183":-0.07714357066451948,"184":0.046066846087138014,"185":0.17445200851265366,"186":0.07377532120587756,"187":-0.09849215340747595,"188":-0.06833254504988828,"189":0.010355285474968237,"190":-0.03760434604766776,"191":-0.049269166460989125,"192":0.08039346532183787,"193":0.10234433428902584,"194":-0.08117444349826769,"195":0.020765078603284328,"196":-0.05380386662770671,"197":-0.15714514991589568,"198":0.15093797979463422,"199":0.15852542690675142,"200":0.13501861720805616,"201":-0.012655521478501817,"202":0.05124872469379742,"203":-0.06397271881378104,"204":0.07392203609462707,"205":0.07579346986172687,"206":0.1229654250233599,"207":0.00856514405136985,"208":-0.09855713095257873,"209":0.053633325302402196,"210":-0.0010032224038486193,"211":-0.027411370132200005,"212":-0.053261322252159876,"213":0.1806613268113198,"214":0.21478726397748626,"215":-0.03589093484635837,"216":-0.05879755376297881,"217":-0.00086061593397775,"218":-0.0357031175426888,"219":0.03362627600890737,"220":0.25310602920619196,"221":0.057198185061949694,"222":-0.11332046720526576,"223":0.03642184501550439,"224":-0.06806844381166564,"225":-0.04038105406958135,"226":-0.029925902734429324,"227":0.13353480516320784,"228":0.19178233291646016,"229":0.044968007878261065,"230":0.00042153770211406983,"231":0.144375295664828,"232":0.12836742099485207,"233":-0.09517207290965905,"234":0.22817940685991314,"235":0.1522514102605766,"236":-0.01620107088783468,"237":0.0064498837050613565,"238":-0.033072913528410575,"239":-0.11704607879489934,"240":-0.03193290527397582,"241":0.20243745571700653,"242":0.21954645215894353,"243":-0.04169236823139179,"244":0.06836424150920886,"245":0.15535636647777382,"246":-0.011323042192655553,"247":-0.1174598986646815,"248":0.22273483933095728,"249":0.23913528178823168,"250":-0.01367939868699491,"251":0.08489511886642702,"252":-0.00829771787011377,"253":-0.029795454727205947,"254":-0.01802263309581933,"255":-0.003611643325276128,"256":0.16931684817499731,"257":0.0075111483631293925,"258":0.019567207880356062,"259":-0.040564703012906954,"260":-0.06058285356044516,"261":0.12459711752119225,"262":-0.11354325074222299,"263":0.19524193190312328,"264":-0.045309120616614,"265":-0.050316826057915695,"266":0.11131091649262852,"267":-0.08348987346793747,"268":0.03737822269176648,"269":-0.011290991024485815,"270":0.32766514298390054,"271":-0.06764011078917173,"272":0.03658668692984523,"273":0.021976826030498563,"274":-0.10404366448889867,"275":-0.05247246491137394,"276":-0.1400448680841417,"277":0.09059211135545205,"278":-0.049005639505482285,"279":-0.07178777305088462,"280":0.06436837356053632,"281":0.007188893778399081,"282":-0.04680975088175809,"283":-0.038809150281989405,"284":0.1014992753757022,"285":-0.12021547753846373,"286":0.027094713603848415,"287":0.07916266314771699,"288":-0.09726349989377538,"289":-0.03175343948519255,"290":-0.05694715903635838,"291":0.2051591279929912,"292":-0.0035044282909195354,"293":0.03832325579438566,"294":-0.13175308875698064,"295":0.029912618237628082,"296":0.10984071163415424,"297":-0.056612460459308275,"298":0.03718811562780341,"299":-0.060402461026687275,"300":-0.08475103143938141,"301":0.08513052441786008,"302":0.0621834870546241,"303":-0.01565063756679142,"304":-0.021693878988608025,"305":0.08148598875197438,"306":0.07694788363774717,"307":0.07784804463889373,"308":0.06462001312115008,"309":0.02515784847204306,"310":0.10373297082097348,"311":-0.09337749392777991,"312":0.07767714833336072,"313":-0.0945642586535787,"314":-0.047970316586913204}},{"sx":1,"sy":1,"depth":315,"w":{"0":-0.030366206403058225,"1":0.031720075397089674,"2":-0.07472426545182922,"3":-0.09632439898789748,"4":0.040555264062514765,"5":-0.026002518769012616,"6":-0.11517185441701085,"7":0.03886171074149639,"8":0.04372797965983832,"9":0.002693602206475489,"10":0.00317832906120819,"11":0.05903821816409567,"12":0.06931673844563051,"13":0.0032455613575509083,"14":-0.1303879271863151,"15":-0.06354320094237705,"16":-0.04122965731954553,"17":-0.10014031969991055,"18":0.033431677474762604,"19":0.00832158013570516,"20":-0.03340093845098548,"21":0.0386000079045586,"22":0.0432058986661277,"23":0.06912226371098917,"24":-0.05691942685860552,"25":0.007877195516920947,"26":-0.00792427296757271,"27":0.13044609109997146,"28":-0.07708698868298078,"29":0.05599999877841905,"30":-0.031103998522182232,"31":-0.012015397888355985,"32":-0.10312686579488844,"33":-0.0608463732867738,"34":0.1262536747209246,"35":-0.10071193502471072,"36":0.0009233266508678373,"37":0.012386467776601679,"38":-0.14968642643305938,"39":0.09770112089882059,"40":-0.00865923605939964,"41":0.16612743532545904,"42":0.04729315523126486,"43":0.06177608409553616,"44":0.04048808607921087,"45":-0.059413272839148226,"46":-0.016789773708597546,"47":-0.09879244622632692,"48":0.027562224679324624,"49":0.0635207522314688,"50":0.053830373341099996,"51":0.030039030867122986,"52":0.01168509519430602,"53":0.026349287036678184,"54":-0.028345091079587315,"55":0.06997870486362726,"56":-0.05136732874767591,"57":0.03943546781851417,"58":-0.05539189214175665,"59":-0.09584675184816031,"60":-0.038736963165861074,"61":-0.03884377240218254,"62":-0.05444086396136791,"63":0.03537772800022061,"64":0.07273775922468421,"65":0.07284247393893023,"66":-0.11602556962921508,"67":0.0002874965635098913,"68":-0.06145400145142647,"69":0.054185332532805504,"70":0.04623807157011349,"71":0.010675476099598099,"72":0.044832809301025726,"73":0.05118069751223985,"74":-0.0017668102596982954,"75":0.008869503753278813,"76":0.12392778458409642,"77":0.016510793610612758,"78":0.1036758883727063,"79":0.07882001475649295,"80":-0.07754557994538218,"81":0.05811811722963908,"82":-0.011456431865446273,"83":-0.02547445701909101,"84":-0.0012506007330384996,"85":0.1114288436316002,"86":0.11909829895389379,"87":-0.06051565279683651,"88":-0.009732115138639414,"89":-0.12355862380987302,"90":0.04700728308335676,"91":0.004409549181052873,"92":0.04261789956249715,"93":-0.05038673059081465,"94":-0.08302747659354152,"95":-0.10495936017882271,"96":0.0800215778459406,"97":0.02199785643849586,"98":0.06237419171846299,"99":0.10195186127405556,"100":0.07949705032067782,"101":0.09589548291962278,"102":-0.03291854210908221,"103":-0.08616838432396066,"104":-0.010638455593931914,"105":0.06673061737354397,"106":-0.0036158633435324373,"107":0.07446126646980336,"108":0.019562533893508587,"109":0.08147237998773607,"110":0.06394406037001592,"111":0.03332363300412737,"112":0.04301191760027349,"113":0.14021573697659737,"114":-0.06416986874606466,"115":-0.03556512469142895,"116":0.04711447072312745,"117":-0.0311064212593031,"118":-0.09023604253601065,"119":0.10893013799768657,"120":0.10367316328947729,"121":-0.035586051497799885,"122":-0.023287856410192896,"123":-0.06134554866476482,"124":-0.15440022627379804,"125":-0.03096852187807809,"126":-0.0643828082781007,"127":0.03841980817886096,"128":-0.026723087499214277,"129":-0.0532581191429709,"130":0.10021141117670036,"131":0.029743592192259534,"132":0.019146028405223222,"133":-0.03465472057228039,"134":0.11067933246860395,"135":0.06076835106599279,"136":-0.08971177743649503,"137":0.048245371396196515,"138":0.1284783769842384,"139":0.02867791300158429,"140":-0.0753027550312103,"141":0.06904987602414506,"142":-0.06195640610690702,"143":-0.10746689392665298,"144":-0.071095723231614,"145":0.14950826161723235,"146":-0.022220587032413232,"147":0.05123089996407881,"148":0.036777864572154456,"149":-0.10269121463731683,"150":0.019293355243999444,"151":0.02282162909752205,"152":0.21494869828671506,"153":-0.07061884553976515,"154":0.021073392516069794,"155":0.1439569627097483,"156":0.03950272115421949,"157":-0.01696307786686607,"158":0.08515999232175911,"159":0.0665178905828661,"160":-0.000461149931478364,"161":-0.02613419154564717,"162":0.1093357748536284,"163":0.07489673257989,"164":0.01638194933228599,"165":0.010966245625398293,"166":0.13050706664126266,"167":-0.01192010160063891,"168":-0.12719851711115637,"169":0.12222069200640173,"170":0.16140344198044598,"171":0.04560037824961363,"172":0.045814265479300495,"173":0.06717455623830529,"174":-0.02831250464735378,"175":-0.05239472768792702,"176":0.02557375502504855,"177":0.09755244834437082,"178":0.06135256947415899,"179":0.04250709484816501,"180":0.04844437191999098,"181":-0.03970451276446768,"182":-0.015811732850263417,"183":-0.0047779756213688,"184":0.22430219622964415,"185":-0.12716342469740205,"186":0.12749865828223725,"187":0.00502902313837405,"188":0.052332852055181414,"189":-0.09723222181832164,"190":0.16731589029691374,"191":0.15584183888712166,"192":-0.026256245438560213,"193":0.16826295560372503,"194":-0.05677174200149661,"195":-0.1307787653222918,"196":0.028063691332915083,"197":0.03296431681025603,"198":0.12346996090764585,"199":0.07818923492015105,"200":0.16987502094145396,"201":0.08052182733973877,"202":-0.06631623038646091,"203":0.0006738217259725172,"204":0.08172442491926014,"205":0.023041281405294902,"206":0.08976679303465576,"207":0.21372716625625668,"208":0.09134997656233593,"209":-0.10384632225541052,"210":0.010550564168132546,"211":0.09054119431815909,"212":-0.055499263174274144,"213":0.18956899127210713,"214":0.28189856068513086,"215":-0.03221460066859059,"216":-0.0926091907347762,"217":0.028232764362401006,"218":-0.04933576026750583,"219":-0.026099818997059484,"220":0.1554454170901679,"221":0.2889992185498043,"222":-0.062390365035302243,"223":-0.14802573551992304,"224":-0.0064168741642439565,"225":0.03190343647549644,"226":0.06712065873326309,"227":0.23345950411490382,"228":0.12764316821644464,"229":0.0843925192760623,"230":-0.08760770686916544,"231":0.0769738108245463,"232":0.0890209780789175,"233":0.1255266312435178,"234":0.20185865270900974,"235":0.18988044536981985,"236":-0.1106474965636186,"237":-0.01635339940274729,"238":0.026306141969601515,"239":0.02288990868965994,"240":0.0736360005750316,"241":0.2081586960130659,"242":0.31217524802033864,"243":-0.08496829818187387,"244":-0.14728892285829703,"245":-0.03011097370764644,"246":0.05638399065177623,"247":0.03733309052529908,"248":0.25370945537562517,"249":0.24235443150827868,"250":-0.04916790797070603,"251":-0.04505082567571375,"252":-0.06089701778489261,"253":-0.054943045651611434,"254":0.08682004802526998,"255":0.2540072943429159,"256":0.44040865147924285,"257":0.05705222235376004,"258":-0.061539629036730215,"259":0.06119705439807763,"260":0.07307809637461256,"261":0.12867971498370026,"262":-0.09688561037481425,"263":0.33897164608237096,"264":-0.012271285793339663,"265":-0.03379427184538846,"266":-0.05825787545991586,"267":-0.00884977649296595,"268":0.12274982617564716,"269":-0.1065037536163525,"270":0.41572073964974127,"271":-0.06344844650952536,"272":0.005456132189314278,"273":0.04692992709978357,"274":-0.03449156342321253,"275":0.018766927346649292,"276":-0.10697261280304422,"277":0.3393913321160433,"278":-0.0024308499284764543,"279":0.08294134610185602,"280":-0.003460348330692192,"281":0.09442487740174782,"282":0.018768989539896898,"283":0.026894140432031935,"284":0.24905120361999358,"285":-0.06018616423557974,"286":-0.07045705179838573,"287":-0.013036372468688115,"288":-0.017559166439737466,"289":0.021218652854690784,"290":0.10405323200387695,"291":0.18993375207078936,"292":-0.053334622749991255,"293":-0.07605702797858721,"294":0.013594188169727834,"295":0.05946865996899321,"296":-0.10286135535594162,"297":-0.004584827629950714,"298":0.11661560231551078,"299":-0.033781202172854415,"300":-0.04675419143988026,"301":0.07302512431867199,"302":0.007375905929781755,"303":-0.10842287389275228,"304":0.011769168014175149,"305":0.22438821144081192,"306":-0.04080076924786043,"307":-0.08916955039943708,"308":-0.03834725424454956,"309":-0.08984699608530182,"310":-0.022888559609871465,"311":-0.11445223067109908,"312":0.14537626380088386,"313":0.10677615875418053,"314":-0.14721065189668384}},{"sx":1,"sy":1,"depth":315,"w":{"0":-0.010063059522361854,"1":-0.0053932574536239624,"2":0.028889356644384696,"3":0.05619678613167827,"4":-0.07688277678111012,"5":0.024601062880859056,"6":0.04226786848605049,"7":-0.04428727010648847,"8":0.03920643274589677,"9":-0.004669105973187333,"10":-0.059518250265361526,"11":0.07536075782481269,"12":0.02988294305361896,"13":0.008447590870621313,"14":0.026786332940651483,"15":0.015606671740140741,"16":0.12092644678844194,"17":0.11751355902325361,"18":-0.019165794675843766,"19":-0.02077546308240435,"20":-0.008860404479285187,"21":0.00543310514885478,"22":-0.05075601260459019,"23":-0.04354732570771627,"24":-0.04944276997581913,"25":0.11380766422930107,"26":0.03748844605335233,"27":-0.11747932564721583,"28":0.04454908610635146,"29":-0.012014784223039381,"30":-0.0037770941944313867,"31":0.0432245933137803,"32":0.01957678263254813,"33":-0.01616939430887454,"34":-0.10762835770332985,"35":-0.08329297697981959,"36":-0.05093312123096572,"37":-0.016628783521266604,"38":0.1154892178732424,"39":-0.015929536215144653,"40":-0.07532560388206606,"41":0.09900646942541037,"42":-0.05339148100556302,"43":-0.0015887402025323218,"44":0.1008173155515231,"45":0.10323274024341435,"46":-0.10214531642610886,"47":0.008949898173973823,"48":0.0021866216320836013,"49":-0.019672063455892563,"50":-0.04636783115871661,"51":0.0022321843462385187,"52":-0.02451721903852851,"53":-0.033899203017136365,"54":0.06107959450008161,"55":-0.044440228874263965,"56":-0.04078107186790454,"57":0.07707058362100123,"58":0.08175439615252553,"59":-0.02314262820487237,"60":-0.11788588869538158,"61":0.03184124526505063,"62":-0.030027978363804428,"63":-0.06366172326811004,"64":0.07599844067929454,"65":-0.1079423016729479,"66":0.07555630829279662,"67":0.07391470434018362,"68":-0.02904185476359436,"69":0.044315335959623794,"70":0.08874715655618229,"71":0.0758485470599101,"72":-0.010536948555102678,"73":-0.007930277221445018,"74":0.06632079191899767,"75":0.09301532893465625,"76":-0.016998252545313765,"77":0.016339807972337018,"78":0.003626187045369162,"79":0.14393366492381626,"80":0.016297170787218842,"81":-0.025093054136065236,"82":0.017918883939392498,"83":-0.134374019777945,"84":-0.0003982709926468903,"85":0.0007208052941398007,"86":0.035241044672118756,"87":-0.06450700550905586,"88":0.05941384634545297,"89":0.08408094931758217,"90":0.03228036653231207,"91":-0.03165213407061064,"92":-0.030347911026209384,"93":-0.028608775668899075,"94":0.06353844617577256,"95":0.05901814533329792,"96":0.02527837372264349,"97":0.08075732129009858,"98":0.14957170313539483,"99":-0.04489998383458248,"100":-0.04736507346878487,"101":0.0032809681414699794,"102":0.04464746792718236,"103":-0.003769910450366102,"104":-0.010986054473333652,"105":0.07992450747552164,"106":0.008284055075678592,"107":0.14336297181019242,"108":0.02192152132703932,"109":-0.04041425690990193,"110":-0.016534622294465798,"111":-0.0355888620682062,"112":0.06114897581102393,"113":0.15170511010947269,"114":0.036751688061703265,"115":-0.01913615670500645,"116":-0.03220355069756362,"117":0.09891278741267706,"118":0.020717784600013268,"119":-0.0392606882396293,"120":-0.028941316051032045,"121":0.0635565375512358,"122":0.074925543795762,"123":0.007372639854176643,"124":0.027884468064508998,"125":0.0002997298442330521,"126":-0.11747259378550652,"127":0.01655934012347355,"128":-0.010444963469317302,"129":-0.027190864660964886,"130":0.06045545052090096,"131":-0.008928598153979268,"132":0.006018118642426789,"133":0.03867460453191009,"134":0.048373742319808094,"135":0.061648665849297436,"136":-0.004124302157765716,"137":-0.09458785769359684,"138":0.05222517869558147,"139":0.06743418519277883,"140":-0.011795917742424233,"141":-0.011568055744065971,"142":-0.06919985005322256,"143":0.012149050693050674,"144":0.019900141308420546,"145":0.011006868292372452,"146":-0.00879313511805888,"147":0.003820691261277526,"148":0.09759154371034989,"149":-0.13108838766471687,"150":-0.0313844483768039,"151":0.01729397789292791,"152":0.00277869465027831,"153":0.05384602813841948,"154":0.14695007475378266,"155":-0.01675577244217516,"156":-0.0526391620742001,"157":0.0008911966245039813,"158":-0.01467012791309457,"159":-0.06281926056325603,"160":0.004859728116439916,"161":-0.058807451326473595,"162":0.07062299206088363,"163":-0.004101215347359953,"164":-0.09271894639410148,"165":0.034782356102247156,"166":-0.06104423338094581,"167":0.06089255800787436,"168":-0.0672092853550378,"169":0.04809147148984804,"170":-0.03965419075428373,"171":0.04855896480538241,"172":0.06473082877087605,"173":0.06602243651673503,"174":-0.06674373703106973,"175":0.029889193923644142,"176":0.0676320517174814,"177":0.057219915498280864,"178":0.05736423427894606,"179":0.03894197566259972,"180":0.040464754322110774,"181":-0.06792074222265519,"182":-0.024604034192786214,"183":-0.02768011663566024,"184":0.029527065270639866,"185":0.037444144237702044,"186":-0.030608632992495433,"187":-0.03893551111936343,"188":0.04637066776082473,"189":-0.03044343999503939,"190":0.06493432908896936,"191":0.03963973118256606,"192":0.027490199660002296,"193":-0.02623636809441353,"194":0.06908645576092218,"195":-0.04832356802469207,"196":-0.015426050993551078,"197":0.05327801885201335,"198":0.009479912571400283,"199":-0.05727346023598617,"200":-0.05839410895223629,"201":-0.03830233523155486,"202":-0.01760703132602238,"203":0.014071050049131183,"204":0.05398895711356961,"205":-0.003168079896570551,"206":-0.03579873776767844,"207":-0.11570539257311267,"208":0.0292168184913264,"209":0.03712932911517427,"210":0.028865704619670234,"211":0.050467946015500205,"212":-0.03266346241078311,"213":0.006791175936362153,"214":-0.030649192427864694,"215":-0.05968020946792395,"216":0.0863246783360366,"217":0.0000155151964532709,"218":0.01568955991689747,"219":0.010348313480529973,"220":0.09978560942184193,"221":-0.02942668191856361,"222":0.08224497499661805,"223":-0.0066832886962001,"224":-0.047977445814295215,"225":-0.07143145423339842,"226":0.030461339576987993,"227":0.012888442793386114,"228":0.020268733877955993,"229":0.05441214397210357,"230":-0.012136541159130225,"231":0.003556160156830111,"232":0.08073888531228968,"233":0.025365400562538956,"234":-0.03226327101698925,"235":-0.018567714418383383,"236":-0.11299005657239453,"237":0.13462347800563612,"238":-0.03623742074276822,"239":-0.00680589460678955,"240":-0.09983992905841224,"241":-0.005730755987775492,"242":0.12849598046885538,"243":0.06881722794694176,"244":-0.12444945460246945,"245":-0.0035593152314338282,"246":0.007986944305632253,"247":-0.01983770568347708,"248":-0.057078065230581454,"249":-0.006281046705334483,"250":0.061760434419240715,"251":-0.016714728646468887,"252":0.012990007929308784,"253":0.0445575877477227,"254":0.02605516394418744,"255":0.044865021553117425,"256":0.008817327295268284,"257":0.06805264699805906,"258":-0.027093485128327977,"259":-0.00909294222364209,"260":0.08978317369757258,"261":-0.11797470456445486,"262":-0.012979242057369913,"263":0.025025868981231842,"264":-0.04146174276393934,"265":-0.01424252270842958,"266":-0.005056743269042981,"267":-0.003172235976689939,"268":-0.0036545140769866447,"269":0.11536995399282553,"270":0.009106189601981111,"271":0.0757553805216015,"272":0.023479855956501205,"273":-0.005714852281400159,"274":0.03619475057052629,"275":-0.027495286340932987,"276":-0.007320840648949875,"277":0.009118877406219002,"278":0.061248903736253385,"279":0.033215293279083645,"280":0.1065339654754246,"281":-0.04253899895644015,"282":0.04522121311359722,"283":0.12918596306982372,"284":0.02287362640403587,"285":-0.03495699183471278,"286":0.13925407996596997,"287":-0.00042085898241413976,"288":0.026562879211897854,"289":-0.03239465466828467,"290":0.15989104731189055,"291":-0.12211396877141745,"292":0.006626867365850705,"293":0.0072548398469108625,"294":-0.09869120292808219,"295":0.07272392356907398,"296":0.0337579983065716,"297":0.006533671061123347,"298":-0.03250547692929102,"299":-0.008655114577441373,"300":0.07427603144956939,"301":0.03308525331158546,"302":-0.021956194161534458,"303":-0.06979242415873232,"304":0.1153492598812905,"305":0.0729935185417232,"306":0.061011159167913255,"307":-0.02591700477579166,"308":0.0013619341754699118,"309":0.039379224583210436,"310":0.1053014885346997,"311":0.09843746577946741,"312":0.003601474346280406,"313":0.02186158748859082,"314":-0.013863748679084185}},{"sx":1,"sy":1,"depth":315,"w":{"0":-0.08803347641801688,"1":-0.028468549342277952,"2":-0.0812153961910863,"3":-0.12934446260444726,"4":-0.008973791627322595,"5":-0.08475970711287195,"6":0.03587765148358429,"7":-0.0020912345551067934,"8":-0.0871695549648329,"9":-0.000488408503769167,"10":0.010141503475615796,"11":0.03407699567588787,"12":0.001587252546621119,"13":0.05647249420147678,"14":-0.026031067139990604,"15":0.019258862664594232,"16":0.05259596267753786,"17":-0.025696361158513092,"18":-0.06763057161853499,"19":0.048817218850966175,"20":0.04179171746960994,"21":-0.017515725501109136,"22":-0.0807111306287574,"23":-0.057119698645191466,"24":0.0015799955785124422,"25":-0.0953495839391545,"26":0.04850601958426214,"27":0.0727108068826845,"28":-0.05641464338402399,"29":-0.017948144066393654,"30":0.017855676209780638,"31":-0.002990235160617321,"32":0.1012807864358632,"33":-0.004024082377453611,"34":-0.12389673607903343,"35":-0.05144991734277042,"36":-0.0714692276584519,"37":-0.011148644571067737,"38":-0.04027134801085379,"39":-0.027879169211361923,"40":0.023459500906226616,"41":-0.02173524598530877,"42":0.024582447241856303,"43":0.013240517787052845,"44":-0.06057774520708802,"45":0.05081362962818634,"46":-0.06530914661916694,"47":0.013028126744753626,"48":-0.0419215341354106,"49":0.03791823597601616,"50":-0.06146070307504365,"51":-0.0522078685141688,"52":-0.011759886432940656,"53":-0.02563717529751664,"54":-0.12020704838707069,"55":-0.004217476823954576,"56":0.05288069602835601,"57":0.003770736107813181,"58":0.08949034577428415,"59":0.011888206833457022,"60":-0.04016152421704432,"61":0.012480331505408905,"62":-0.020169375315366108,"63":-0.10424392125260833,"64":-0.010014991156298385,"65":0.01422987903073364,"66":-0.05777828207568477,"67":-0.0852617846543616,"68":0.010313432908037502,"69":-0.14017225744162048,"70":0.01051250786484688,"71":0.06188228435539315,"72":-0.04452056333910497,"73":0.04200713522279462,"74":-0.0548432252585141,"75":0.050565194149489366,"76":-0.002721863166052867,"77":0.05783588461620931,"78":-0.018830672970921135,"79":0.008254245222292124,"80":-0.07082572285137026,"81":-0.00017218546915202983,"82":-0.0026718809301679945,"83":-0.05352983130073657,"84":-0.009866412674596816,"85":0.03428368642731326,"86":-0.05153050865810831,"87":-0.019529625612193836,"88":-0.00894469046600587,"89":-0.06112002832327676,"90":-0.02587933772207093,"91":-0.04177150363064137,"92":0.0235973414100177,"93":-0.07947300145201663,"94":0.07720864550067731,"95":0.056993603070111074,"96":0.014952695346285839,"97":0.0653384262696157,"98":-0.006657078162797455,"99":0.06085161740964386,"100":0.07831411882510049,"101":-0.06833024905466144,"102":-0.036695180815866806,"103":-0.040252978090943366,"104":-0.10597254221833578,"105":0.001785443983454763,"106":-0.06895287303764458,"107":-0.01816405938853501,"108":0.026792675776259954,"109":-0.03544414123547396,"110":-0.027527751858331905,"111":-0.005494816579190393,"112":0.07958410262202288,"113":0.013266668848367634,"114":-0.10574119235305768,"115":-0.013126969862094284,"116":0.05226280119994725,"117":0.03744375022948938,"118":0.056387322187291256,"119":-0.01408329696241633,"120":0.01014316830421108,"121":-0.0574282259144725,"122":0.008928957456104072,"123":-0.014418058005471263,"124":-0.03230051338297213,"125":-0.07087503603208513,"126":-0.024757051197306444,"127":-0.01319541848477706,"128":-0.00005126111863310174,"129":-0.10898010778471702,"130":-0.02772473407692197,"131":0.04329840877135153,"132":-0.035895592030498434,"133":-0.04395299581959437,"134":0.05326914083364326,"135":0.058201071277684216,"136":-0.05157390264401633,"137":0.031546814207479464,"138":-0.005870416023451563,"139":-0.07762324022761198,"140":-0.0213399844829575,"141":0.033970171146840596,"142":-0.03460912641444299,"143":-0.04788075760867642,"144":-0.03735492103577078,"145":0.0271540750123958,"146":0.06397802102952796,"147":0.09579814049226235,"148":0.008834713059549689,"149":0.0401199991866078,"150":-0.011102749799594297,"151":-0.04375430007273233,"152":-0.11578486067854754,"153":0.028472947284844174,"154":0.04140425163116915,"155":0.00545970634886848,"156":0.03481737877454858,"157":-0.07968406515858564,"158":-0.10066007513812397,"159":-0.06109208056192476,"160":-0.07831532221761774,"161":-0.044834173576943366,"162":-0.021172606756393247,"163":-0.051243260375476454,"164":-0.06418518209812556,"165":-0.016422487171719007,"166":0.0413342057587391,"167":0.04188456387781773,"168":-0.13376291728887085,"169":-0.06684142634983879,"170":-0.07023260268287493,"171":0.11038948234059728,"172":0.09136295349679459,"173":0.049995434998779176,"174":-0.01415661958674614,"175":0.0641495248268261,"176":0.031368738560325626,"177":-0.05999354995304361,"178":0.019897607748896692,"179":0.010834130224517197,"180":0.026281290885807534,"181":-0.06145941541302217,"182":-0.05316131546533135,"183":-0.06724387907283384,"184":-0.010734856365202154,"185":0.019068041642539137,"186":0.04048530376481326,"187":0.024955341242193445,"188":-0.044815238462912445,"189":-0.005584943381273816,"190":-0.0037749200649207183,"191":-0.01929331804431756,"192":-0.012347991629843624,"193":-0.040535654677352005,"194":-0.04617329849273093,"195":0.01582752115703077,"196":0.019369573678808233,"197":0.0005357562605362102,"198":-0.11561612572343548,"199":-0.11213181295617922,"200":0.03458955717266103,"201":-0.02544588348053779,"202":-0.06426130081855665,"203":-0.06942680951710932,"204":0.07249456478746004,"205":-0.011228527424200904,"206":-0.047611562808358404,"207":-0.08389523013372369,"208":0.02023238633360609,"209":-0.0235143491964749,"210":-0.14720251390288894,"211":0.0949130221238671,"212":0.07710241228235486,"213":-0.09744985743654999,"214":0.020298458720265207,"215":-0.04969144195657392,"216":-0.008561082351482572,"217":-0.014269968129305376,"218":0.028077858576920488,"219":-0.02654543668227144,"220":-0.011828486834437959,"221":-0.010521526379503033,"222":0.024843561680566294,"223":-0.041214456009040015,"224":0.0015965241784791113,"225":0.08387357046402154,"226":-0.07863557812173098,"227":0.08751353891143748,"228":-0.025488648536826895,"229":-0.009796782948364455,"230":0.011171898187527582,"231":-0.03367550700906684,"232":0.009970279727507166,"233":-0.0939368391333817,"234":-0.0372349699300015,"235":-0.09954802347675179,"236":0.10131647971888942,"237":-0.041626565103060176,"238":0.11329586005974793,"239":-0.07795571713251769,"240":-0.021429057794080997,"241":-0.007276056729546808,"242":0.014630843757346926,"243":-0.04235559018282538,"244":-0.019589339967354704,"245":0.021766716277956694,"246":0.033717566677397205,"247":-0.06929492555453946,"248":-0.0959112694856413,"249":-0.005744113845622196,"250":0.026875789209519475,"251":0.027794415453693693,"252":0.0007532928321021114,"253":0.001388217077337662,"254":0.04871700004229906,"255":0.02968412828542445,"256":-0.04636663812344426,"257":0.028697100218912273,"258":0.10349675201016764,"259":0.030246616516888914,"260":0.009587385948330394,"261":0.07535955986828173,"262":0.03198239946093042,"263":0.06148146812202173,"264":-0.10392880513403471,"265":0.07789552460697727,"266":-0.004158725391488245,"267":-0.04565025428646868,"268":-0.02274179542010047,"269":-0.011165251237419124,"270":0.032377358333906134,"271":0.02470116500349007,"272":0.054250863281895316,"273":-0.030098902809346035,"274":-0.074453579219384,"275":-0.04328449476215839,"276":-0.11616912059814716,"277":-0.07210468937208696,"278":-0.15544834299774585,"279":-0.019427359765760432,"280":-0.009820021862884071,"281":-0.005035950796028131,"282":-0.02054849969500775,"283":-0.08305130126540348,"284":0.10079252542370595,"285":-0.12142103364446315,"286":0.05339478802583568,"287":-0.026780021033802594,"288":0.01893843631812917,"289":0.05851789999097943,"290":-0.04633806472137698,"291":0.11779872705143009,"292":0.017144045476438413,"293":0.021118997151776876,"294":0.015261895672223483,"295":-0.01274801947103532,"296":-0.10851410926042847,"297":-0.12778660851434553,"298":-0.0749785812106638,"299":0.0803310943536578,"300":-0.06603144054851416,"301":0.05379602552751729,"302":-0.06334513980235404,"303":-0.05956897995027031,"304":-0.09303724554929735,"305":-0.00534981674288005,"306":-0.02524360132626401,"307":-0.07885033584487876,"308":-0.03271602247933115,"309":0.02265729240841279,"310":0.028780079225086463,"311":-0.029729852350318865,"312":-0.045674759952115875,"313":-0.10036322394601281,"314":-0.03652801252496909}},{"sx":1,"sy":1,"depth":315,"w":{"0":0.0062717110114395985,"1":0.06847720087135283,"2":0.030291549232027076,"3":0.10100682376449832,"4":-0.03568804799681544,"5":-0.05923428442730954,"6":0.08162302627230862,"7":0.036372587627159454,"8":0.02735076669252919,"9":-0.034945196638671586,"10":0.04223215547059517,"11":0.039850244347668845,"12":-0.0946341001577588,"13":-0.06663223469253382,"14":-0.03489072369972389,"15":0.11267868067765525,"16":0.047225310147123736,"17":0.07015695563776421,"18":0.016184538577975242,"19":-0.0008740550783615343,"20":0.012636462415732594,"21":-0.00518044586097275,"22":0.10116531326484896,"23":0.04580279590385399,"24":0.03853202087857735,"25":0.042543752551861054,"26":-0.01044843422496782,"27":0.016382473935982307,"28":0.04006116465846081,"29":0.008130867937993943,"30":0.0023516974502530434,"31":0.021606745332606196,"32":0.10058162130993147,"33":0.017180849896164,"34":0.08197531106012318,"35":0.006753397455853201,"36":0.12625217624903692,"37":-0.012245652018022584,"38":-0.03724211967791821,"39":-0.03930445340486343,"40":0.04681609427219626,"41":-0.09541655612718143,"42":-0.029184177492397243,"43":-0.091571852576443,"44":-0.0764186434349564,"45":0.06383947416102098,"46":0.04935972793601526,"47":0.01646203009738989,"48":0.014995495136032133,"49":-0.0536399116131399,"50":-0.0020957054388006336,"51":-0.0031395691247154836,"52":-0.019774719548754253,"53":-0.10795067615126698,"54":0.02067158133589496,"55":-0.02423835379016199,"56":0.023495966855234994,"57":-0.030116450196455195,"58":0.009948394994949863,"59":-0.05790100355125288,"60":-0.08312049657389604,"61":0.04954549415490062,"62":0.09883993743984505,"63":-0.02895636440367118,"64":-0.006746707149146672,"65":-0.0003324258593265148,"66":-0.10086328565203724,"67":0.028095950654225724,"68":0.010776681327530851,"69":0.14842925981820296,"70":-0.004446056510362918,"71":0.07702199226255987,"72":0.05839850487841381,"73":-0.02624998541089625,"74":0.011137046528214433,"75":0.09322562600071102,"76":0.03733634048463132,"77":0.0021236091373976833,"78":-0.027018693240908023,"79":0.016835041913050842,"80":0.038425393749107854,"81":0.0463989842153507,"82":-0.024951222802697754,"83":0.04403338353332678,"84":0.04062408026508143,"85":0.0036992934256694695,"86":0.001710248563907823,"87":0.07787750186553898,"88":-0.007063941003690342,"89":0.06401625219101109,"90":0.021500534912101018,"91":-0.029156524027698676,"92":-0.009120007618440748,"93":-0.012101356023655144,"94":0.02856724972088406,"95":-0.027058614144596926,"96":0.03034360090555535,"97":0.06286285327488368,"98":-0.05810143067140902,"99":0.01261025369319838,"100":-0.02158000993293957,"101":0.10223766683746864,"102":0.019453587707571593,"103":-0.052645904191469056,"104":-0.01864817121736485,"105":0.03913466724979022,"106":-0.008525202636397004,"107":-0.0014534617375458728,"108":-0.02198076751307348,"109":0.09293578990315747,"110":-0.012036501174621296,"111":0.03439372905438796,"112":-0.02042155679854687,"113":-0.03445587425893604,"114":0.0391983180182745,"115":0.048456202360459125,"116":-0.01184860880954026,"117":-0.013569753632249102,"118":-0.06372904884987994,"119":0.02784290159678883,"120":0.03712866000395206,"121":0.025530136585279407,"122":0.025107108906323356,"123":0.011288626537470554,"124":0.002517324326411608,"125":0.030074787148055022,"126":0.013743408882112378,"127":0.05773394770374851,"128":-0.027709458408841155,"129":-0.005614966737987053,"130":-0.0009498557672427989,"131":0.08987606809382245,"132":0.10622594994577947,"133":0.03601190502111514,"134":-0.03745521303091627,"135":-0.037622068701070724,"136":-0.10102568595643727,"137":-0.07051263794931331,"138":-0.027098216587328323,"139":-0.023129416933712284,"140":0.02063599445873645,"141":0.09868270202603645,"142":0.10387415147992246,"143":-0.012393553578689607,"144":-0.06500550854372336,"145":-0.11518113582301391,"146":0.014063323576782947,"147":-0.027052136175958485,"148":0.05454394940511039,"149":0.04448040071502374,"150":-0.03220882663119016,"151":-0.01995315454294388,"152":-0.09567897373335671,"153":0.01105097366761177,"154":-0.040813257366044804,"155":0.07510829226776557,"156":0.00927778856601726,"157":0.10598177887615376,"158":0.08422821081188007,"159":0.054962915201418244,"160":-0.03029673286723247,"161":-0.050674177263532336,"162":-0.11009416701030929,"163":0.049170685521430085,"164":0.011588479108422561,"165":-0.003280224685254978,"166":0.09554965665323159,"167":-0.03766704951048237,"168":-0.02123680573279492,"169":0.018720125445635324,"170":0.017502523546807026,"171":0.10201542419033734,"172":0.03384404441078073,"173":0.05296073690676538,"174":-0.02321916787595322,"175":0.03111452678616655,"176":0.07296307492147634,"177":0.05695644237976705,"178":-0.025850864557743148,"179":0.09000011120933825,"180":0.020826280985563286,"181":-0.06538102815984359,"182":-0.03640053475235349,"183":0.12164125942241212,"184":0.008269670158392918,"185":-0.07020365682081023,"186":0.003975053585524134,"187":0.023190746052652242,"188":-0.013784765267915047,"189":-0.05382223862427955,"190":-0.024243471077710327,"191":0.10787487861349412,"192":0.023051096684793666,"193":0.006015068892564795,"194":-0.1247159692672337,"195":0.06883308524173769,"196":-0.018037296472329382,"197":-0.011316307858073558,"198":0.027259629747156996,"199":-0.0656284978041015,"200":-0.048031401954887344,"201":0.02082606057470228,"202":0.011347627338980433,"203":-0.002872580201075217,"204":-0.02816426307818127,"205":0.09223228502948178,"206":-0.0018450012542250444,"207":0.014496864871938157,"208":0.05861704741170407,"209":-0.05719856751076604,"210":0.005216961958916604,"211":0.018401545421213118,"212":0.048351044930162505,"213":-0.010583492861636457,"214":-0.04578931078274484,"215":0.021289375932099293,"216":0.03876819726136782,"217":-0.07707237747334826,"218":0.022036978658420046,"219":0.022204376762864624,"220":0.10765748498247851,"221":0.029291053268936367,"222":0.05640224700673682,"223":-0.014179551917659598,"224":0.06633140208988782,"225":0.01621081535379695,"226":-0.00552927623287474,"227":0.03309331663007675,"228":0.06891090284914274,"229":0.016565374888132908,"230":0.12311150250756524,"231":0.059372979125689535,"232":0.1860820447450751,"233":-0.02053609832475478,"234":-0.020373596182645,"235":0.0008994470353699564,"236":0.003177730013733369,"237":-0.033191611049510995,"238":-0.11449966950370576,"239":0.06809462953761618,"240":-0.02033441301233525,"241":-0.04511172871019037,"242":0.09216256730868665,"243":0.003412579834880051,"244":-0.00869725464513448,"245":-0.019920739729533767,"246":0.054297305462692555,"247":0.08614881153028417,"248":-0.05303636176758158,"249":-0.00024110160019255537,"250":0.015431953174831231,"251":0.07905797983408716,"252":0.04426814841672552,"253":-0.0344483033735059,"254":0.043543776568818075,"255":0.07607350205784517,"256":0.17020331500288108,"257":-0.005310377673934511,"258":-0.010342542830585331,"259":-0.036933931882782475,"260":0.03495171841554654,"261":-0.05309512170098899,"262":0.09074538813524671,"263":0.06322495119947043,"264":0.09032185087986118,"265":0.015247590087891581,"266":0.02058550958690695,"267":0.0523029477603327,"268":0.04336677018818115,"269":0.07868699320319403,"270":-0.0758070593965925,"271":0.02383328903291262,"272":0.09421986316256735,"273":0.04963187034101473,"274":0.03435161502017033,"275":0.09206204067232955,"276":-0.001479127599061536,"277":-0.03498525231132326,"278":0.1251683334056976,"279":-0.006958990005297986,"280":0.020856786564456314,"281":-0.006901215600131891,"282":0.0994901187595042,"283":0.061615278179014264,"284":-0.08650592641283364,"285":0.04368933796213155,"286":0.03485136286117025,"287":0.07725881313147384,"288":-0.03185150699772295,"289":0.017113021601932975,"290":0.06596911098774073,"291":-0.0007363887073017107,"292":-0.04252391265133562,"293":0.014664634709102285,"294":0.06517584164003105,"295":-0.03144843266572298,"296":-0.1289397408915464,"297":0.09976431898265155,"298":0.022251389828640396,"299":0.01969230417479063,"300":-0.02265886927781334,"301":0.027402107539215136,"302":0.10446044069735617,"303":-0.044886210420431075,"304":0.1998101246398279,"305":0.11478179286077682,"306":0.04324438384062209,"307":-0.05411107595014188,"308":0.04594737681756988,"309":0.05054262226191473,"310":0.002422334940286134,"311":-0.019261347076709685,"312":-0.044179101943101394,"313":0.05005229545450326,"314":0.056216273939576844}},{"sx":1,"sy":1,"depth":315,"w":{"0":0.04248099432228423,"1":0.045563131108067506,"2":-0.03059022605282738,"3":0.06032993785337572,"4":0.08715309539802758,"5":-0.0016565638058511566,"6":-0.01646832456853226,"7":0.02881972129538559,"8":0.09107639261158805,"9":0.03652511101753455,"10":0.09054158425862663,"11":0.06969982798289039,"12":-0.08552962293377821,"13":0.08970799068220453,"14":-0.022129912525938402,"15":-0.06539649959389619,"16":0.03297091064800148,"17":0.0538970219433437,"18":-0.07171881774599943,"19":-0.07107115505710729,"20":-0.0029786887808659554,"21":0.11662165411122753,"22":0.005096256328938969,"23":0.029096528767413123,"24":-0.11994920080702572,"25":0.02800131627264911,"26":0.0204390225967379,"27":0.027436786455289214,"28":0.09673640704457868,"29":0.0840561074741786,"30":-0.05050227998358536,"31":-0.15871061082355603,"32":0.0658564156838263,"33":0.043943056365020244,"34":0.09326929672152168,"35":0.10847490034130912,"36":0.08132969718039709,"37":-0.03707483404386134,"38":0.023065323078248868,"39":-0.008727441762403984,"40":0.053802514321072886,"41":0.029078180413863623,"42":0.06922986791150901,"43":0.08528045132740304,"44":0.15859047217419195,"45":0.050409307129347526,"46":-0.02194604166666256,"47":-0.02013353892593658,"48":-0.05509804636900183,"49":-0.0036189880413912876,"50":0.204834633706381,"51":0.15890523686688035,"52":0.04684073755067122,"53":0.004544726529075851,"54":0.046400459397563924,"55":-0.062161873627627144,"56":-0.0557251021688914,"57":0.023271780030612685,"58":0.12709420944774366,"59":0.01372675039207375,"60":0.1043431900311827,"61":0.04460221061462091,"62":-0.0019745320447525643,"63":-0.010371286558626418,"64":0.060983922794544426,"65":0.17522674778838737,"66":0.06302876240695225,"67":0.16043189345044392,"68":0.1570624792132642,"69":0.0058541524020231765,"70":-0.03298707631988221,"71":0.03451751872755806,"72":0.13187644968286102,"73":-0.058750278416848586,"74":0.045436890289283376,"75":-0.07919418036439292,"76":0.059394609083617,"77":-0.10624898433294769,"78":0.09863173220389856,"79":0.13447129990127768,"80":0.1410915555382077,"81":0.14845680409337153,"82":-0.001869044390099703,"83":0.10464685696916616,"84":-0.08006370688679905,"85":0.047469635397088296,"86":0.2137964112266455,"87":0.15329884779457553,"88":0.20659448094117022,"89":-0.038989557394048316,"90":-0.028531213920975008,"91":-0.0748252285082182,"92":-0.02022186604239049,"93":0.25669370376473877,"94":0.11997025066871922,"95":-0.010729579127395614,"96":0.006632292010320299,"97":0.04970874548163552,"98":-0.11388266342269185,"99":-0.028964023856916918,"100":0.1047911885543813,"101":-0.007578078212635412,"102":0.010258960385886232,"103":0.02113099283275914,"104":-0.019077754725525847,"105":0.030297660463491888,"106":-0.02536587997371296,"107":0.15154471016545726,"108":0.00611484192938542,"109":-0.07141980673634166,"110":-0.012360743625967568,"111":0.03595491063094707,"112":-0.048561190743133004,"113":0.00003992553597016626,"114":0.036966583427518726,"115":-0.07248575027062767,"116":0.12101151351604586,"117":0.0518220721951889,"118":-0.12240247907934304,"119":0.08013679569599756,"120":0.028339928240930692,"121":0.17910069747958718,"122":-0.1352689657967174,"123":0.16822678639894528,"124":0.07459700942894616,"125":0.04070333531156413,"126":0.011304187649904443,"127":-0.04787842514422205,"128":0.15435798336836382,"129":0.07988083032977228,"130":0.11422581921475146,"131":0.04594052137166528,"132":-0.003603478509332083,"133":-0.0010712457963750668,"134":0.04982371805422063,"135":0.16214932904419171,"136":-0.01830644627037606,"137":0.13415011082139824,"138":0.13168471878557125,"139":-0.07079476104578725,"140":0.03320831214493541,"141":0.05417257614293124,"142":0.24966647867212174,"143":0.04882159170335352,"144":0.17049548982766496,"145":0.03650723307367748,"146":-0.0591846696157981,"147":0.14051331277171444,"148":-0.0023020682049716863,"149":0.1507954384123598,"150":0.12816113840654503,"151":0.08962010101970917,"152":0.18568245846506268,"153":-0.07616230152207887,"154":-0.021733970525074708,"155":0.10992589405694293,"156":0.07907873866783571,"157":0.08457341198496225,"158":-0.002314033862019526,"159":-0.0005458161475065789,"160":-0.08941604961824354,"161":0.0028168504276343837,"162":0.1216091166016959,"163":0.07359251073506867,"164":0.06276412656384513,"165":0.06053438373415594,"166":0.029521590854979293,"167":0.020403579844423276,"168":-0.01569908942581405,"169":0.02225490083426853,"170":-0.08435622223905073,"171":0.1645177398785048,"172":-0.035001080550176665,"173":0.013036755099312755,"174":-0.010477669982178752,"175":0.08125275672622131,"176":0.04977390010324277,"177":0.12204712205793784,"178":-0.09909636967778895,"179":-0.05690385440797526,"180":-0.03896600372776181,"181":-0.0728945226332544,"182":0.04731740152574379,"183":0.014570117421623023,"184":0.018519767137812632,"185":0.20692805629067745,"186":-0.04499595086857722,"187":-0.1021722760400458,"188":-0.011487685503809816,"189":-0.017951032640176123,"190":-0.03631778135076421,"191":-0.035992065192730294,"192":0.19632382731461492,"193":-0.21321025733010007,"194":-0.0403317075316715,"195":0.03135028515220269,"196":-0.001063005720779228,"197":0.060305015772983604,"198":-0.06044969061148669,"199":0.11263451398065495,"200":-0.18769381335606466,"201":-0.01975339782374811,"202":-0.06484570690648259,"203":-0.029656460944607627,"204":0.08455762412426605,"205":0.034977567933536104,"206":-0.06158942177281229,"207":-0.1701211826226383,"208":-0.12371600992627846,"209":0.006947013766335466,"210":0.026486840295497395,"211":0.013853261636777385,"212":0.014075460635141347,"213":-0.6049713384955714,"214":-0.12190911357674813,"215":-0.06398395670345706,"216":-0.0851876016852462,"217":0.10559396403547112,"218":0.03513114302333509,"219":0.006948365624092625,"220":-0.6539070934821734,"221":-0.19775887429259417,"222":-0.16163893398938936,"223":0.004268131779537368,"224":0.08637661171679153,"225":-0.003148114694065346,"226":-0.15675937100298895,"227":-0.520149968518053,"228":-0.19754661415723732,"229":-0.2645457297651422,"230":-0.021812926407967316,"231":0.08141147735836402,"232":0.01339662590141164,"233":0.0016241205114596868,"234":-1.0529970422683503,"235":-0.0612392740832816,"236":-0.17730373702012156,"237":-0.03477515820223819,"238":0.1352919536536682,"239":-0.1447174414735797,"240":-0.13281130003662617,"241":-0.8978407095522063,"242":-0.27176403310298414,"243":-0.10458739680771441,"244":-0.09036815169359694,"245":0.059419327158660794,"246":0.08870503116540202,"247":-0.30108249352980454,"248":-0.7606808780729993,"249":-0.31971884455991106,"250":-0.1428889147133309,"251":0.049358067759638,"252":0.10467129237014611,"253":0.0514577034257338,"254":-0.3210542017287041,"255":-0.7193526503327765,"256":-0.22872673821123685,"257":-0.15575956081037504,"258":-0.14593773273311478,"259":0.022007672349728055,"260":-0.041347643261966195,"261":-0.5352505135915343,"262":0.20443544278660353,"263":-0.3856998671408004,"264":-0.1256981245322223,"265":-0.04869554227219239,"266":-0.04034028763473067,"267":-0.03587148020695584,"268":-0.5025648810894435,"269":0.05696185663233068,"270":-0.1360500961317322,"271":-0.0697215108983622,"272":-0.03690838407223022,"273":-0.02241064472518385,"274":-0.010349342114085069,"275":-0.5184973977994265,"276":0.12078995213312435,"277":-0.11568205769267494,"278":-0.06867514798842886,"279":-0.022276378151523755,"280":-0.07196364655985352,"281":-0.2328378671609375,"282":-0.5742572024674278,"283":-0.0011641577902865706,"284":-0.04639929309981707,"285":-0.004673329808760162,"286":-0.012015370572813822,"287":-0.012186835795563768,"288":-0.1291049281279385,"289":-0.3899415245075819,"290":0.09059469587962161,"291":0.012622650389684712,"292":-0.1322074612533114,"293":0.06254798502555999,"294":-0.08737175332550023,"295":0.030503176933679974,"296":-0.29700318958546523,"297":0.03392125508777607,"298":-0.03968383051461683,"299":-0.036053582395047065,"300":0.012175090045782676,"301":-0.06356473548903126,"302":-0.0316037567143105,"303":-0.09809985737184479,"304":0.08841082188039583,"305":-0.047415116167671655,"306":0.13798535207254375,"307":0.1032220117987722,"308":-0.14840068488115726,"309":0.061516338100304414,"310":-0.12475884233529783,"311":0.16233343356696867,"312":0.04319345439289372,"313":0.13979227203100197,"314":0.037143120822813194}},{"sx":1,"sy":1,"depth":315,"w":{"0":0.04688192348408321,"1":0.04646258440528915,"2":-0.19352720582209879,"3":0.022485490181902722,"4":0.03318687143404218,"5":-0.1152082290113997,"6":-0.038955780657595786,"7":0.03313445571875142,"8":-0.03569864508205789,"9":-0.11062096428545963,"10":-0.03577394113921985,"11":-0.007577939315792914,"12":-0.045028468358998035,"13":0.017845013459808694,"14":0.00011352465112275407,"15":-0.012923712299345762,"16":-0.06824484871576147,"17":0.1033952592900219,"18":0.03477930077435259,"19":0.004541266167810261,"20":0.028049369311903848,"21":0.024602590557521342,"22":-0.023382536578828307,"23":-0.02949825435991963,"24":0.01411753283567953,"25":-0.051375345622760665,"26":-0.14391403263454766,"27":-0.05606054054972161,"28":0.00026591928059676857,"29":-0.11225254445658873,"30":0.08219860353071173,"31":0.1138667263410207,"32":-0.009449461026000918,"33":0.005539184555065608,"34":-0.05752336166943196,"35":0.10652242008918433,"36":-0.01960678054552886,"37":-0.09417456950559139,"38":0.054236000635493185,"39":0.12937809676943793,"40":-0.014266945641619164,"41":-0.05005591829287685,"42":0.0697307252172141,"43":0.040048936576943014,"44":-0.019220451354219667,"45":-0.06392497709569135,"46":-0.026113501807702524,"47":-0.07402589284718535,"48":-0.06412988978132493,"49":-0.011031995486281665,"50":-0.13952695597612913,"51":-0.04021697073831402,"52":-0.05182191941784225,"53":-0.09058613038185279,"54":-0.10202857515089389,"55":-0.06458231232800797,"56":0.012234435985983281,"57":-0.04143401632241116,"58":-0.0281602846347954,"59":-0.07803404475657333,"60":-0.009414421702728866,"61":0.09445767716419892,"62":0.037175695409655075,"63":0.052014187491380995,"64":0.021717603531169055,"65":-0.0012242140171876497,"66":-0.11562704752406161,"67":-0.0628520784313289,"68":-0.05119770215135456,"69":0.07343831776393789,"70":0.07797193760254503,"71":-0.004329323493878347,"72":-0.018401101305400555,"73":0.006532430212711279,"74":-0.024747025440060532,"75":0.06039643428230337,"76":-0.10188087532391156,"77":0.11521978262651997,"78":-0.02929210979229264,"79":0.002726524072710705,"80":-0.006525421045420717,"81":0.01721215305567173,"82":-0.06342591590102645,"83":0.04989597407448646,"84":0.07851592500814468,"85":0.03143820468558927,"86":-0.018955123533573894,"87":0.07260491074854487,"88":-0.061937419508715744,"89":0.09787580891191806,"90":0.03310669086733514,"91":0.09920605763529558,"92":0.06556386031695895,"93":-0.135819677857936,"94":0.0675490008296126,"95":-0.11375859481975222,"96":-0.0029108388070468007,"97":-0.1476164083294952,"98":0.10049890242344352,"99":-0.03421508587897486,"100":-0.16038618757811177,"101":-0.02571206596675537,"102":-0.019419298843096046,"103":-0.028524125276516127,"104":-0.02168489125945766,"105":0.06808409826477803,"106":-0.12072400142509408,"107":-0.0323513956234906,"108":-0.006295378999950471,"109":-0.01085780542025628,"110":0.008245441166348457,"111":-0.03181273731513864,"112":0.1110088831747806,"113":-0.07338357565257904,"114":-0.036662662710243,"115":0.02530009024682292,"116":-0.0009850799649042073,"117":0.03312189976483914,"118":0.02002853893249037,"119":-0.01137113876347808,"120":-0.010101782373034485,"121":0.01740404099335368,"122":0.046246098949271335,"123":0.059458750290871464,"124":0.015020394555245785,"125":-0.03156469756496114,"126":0.08661246411715406,"127":0.09164950347929915,"128":0.028584135122148024,"129":0.08259805726807135,"130":0.016670787865784645,"131":-0.05833012586096085,"132":-0.003364700179695045,"133":0.044402567101730836,"134":-0.035895567445506024,"135":-0.00941546323765127,"136":0.13367754446766228,"137":-0.01112169892124668,"138":-0.09159924895261964,"139":-0.11336633796694742,"140":0.008993416994440681,"141":0.022918759626430453,"142":-0.032429070434684036,"143":0.09233164832023129,"144":-0.026234227826230052,"145":0.005010596577656146,"146":0.03320234167979927,"147":0.12259999064280509,"148":-0.045163682065799605,"149":0.01622773005663043,"150":-0.017641252880805293,"151":0.0035288814280075857,"152":-0.013502998812711072,"153":0.05678755927163965,"154":0.1062077749666645,"155":-0.04955154198740488,"156":-0.07509696887257522,"157":-0.02600299305021004,"158":-0.0013566664316396022,"159":0.06007155665551027,"160":0.11285190610773874,"161":-0.05761295773202378,"162":-0.15099927197634086,"163":-0.023635768815386704,"164":0.05305694328875245,"165":-0.002587675131353943,"166":-0.12006179012020604,"167":0.04875107060071683,"168":0.02533858351509181,"169":-0.04921687453488371,"170":0.026334561804852115,"171":-0.08398649214830065,"172":0.04190862458435209,"173":-0.01994594734297701,"174":-0.06960820536297757,"175":-0.04620060238854221,"176":0.003395641026362275,"177":-0.15025059730014287,"178":0.0012251843855118603,"179":0.04320247236872537,"180":-0.004092502778699231,"181":0.031365700863244056,"182":-0.03385990575472923,"183":-0.0002872430309854919,"184":-0.019796876416911288,"185":0.06807973345303643,"186":-0.028707741172336595,"187":-0.07885490202895248,"188":0.08435993735890258,"189":0.024542422976100993,"190":-0.04410530627948091,"191":-0.007904139197798272,"192":-0.015426074041226104,"193":0.020260568770993047,"194":-0.0767347243858109,"195":-0.017014369751350865,"196":0.02865501702889342,"197":0.01567550070492523,"198":0.017443124755443417,"199":0.025567073985908437,"200":0.1269751240435614,"201":-0.015229938280280639,"202":0.00825419100978977,"203":0.12965955244423044,"204":-0.11089544101110699,"205":0.10064365853114829,"206":-0.03680465199870723,"207":-0.004727748684491073,"208":-0.11719886192781331,"209":0.04651721768126861,"210":0.008293893787038945,"211":0.042060406787536433,"212":-0.00394285598448444,"213":-0.06667110829840993,"214":0.07488515229119677,"215":0.002825867852342357,"216":0.05557380592293327,"217":0.04736648909312229,"218":0.04126922118596715,"219":0.07880181743057638,"220":-0.08302356132703397,"221":0.09960322543900002,"222":0.029678323013955326,"223":-0.03637955058808013,"224":0.08248248390158712,"225":0.056636425864664615,"226":-0.0397345202978185,"227":0.0007947362941252277,"228":-0.03547137198079058,"229":0.08708599780312679,"230":-0.0006530046390504951,"231":0.1003368975042126,"232":0.01270608235191435,"233":-0.040280194812156375,"234":0.030104836377323474,"235":-0.07341424786109486,"236":-0.024217066668800837,"237":-0.05001827008483198,"238":0.03559886614631546,"239":0.054658897027243046,"240":0.13495023470132064,"241":0.005003725580578904,"242":-0.17971767894798793,"243":-0.009490408905066654,"244":0.03341938667536598,"245":0.05290880234646097,"246":-0.03688229124153167,"247":0.014751110758931306,"248":0.11826963867895682,"249":-0.09065076563212125,"250":0.016748554738952613,"251":-0.01453830775060478,"252":0.038259341852175145,"253":-0.004912641837021921,"254":0.09063824683530898,"255":-0.06632245682351348,"256":-0.03859280970911099,"257":-0.05111934946790181,"258":0.06391219033295804,"259":0.013039106215363326,"260":0.030271449165895796,"261":0.08585244171572412,"262":-0.04936809841889856,"263":-0.10842163345667606,"264":-0.0486172354863229,"265":0.08204714548149421,"266":-0.011128423150525778,"267":-0.015363821168770948,"268":0.08527365718098508,"269":-0.1139706603844915,"270":-0.03020435256950105,"271":0.041941094931887225,"272":-0.008230275360586629,"273":0.03624859671837973,"274":0.06388399485351688,"275":-0.010441821850372589,"276":-0.09851196283122354,"277":-0.05164783840938498,"278":-0.021064560801075972,"279":-0.034778194779552386,"280":0.10427882646333386,"281":-0.03787087030643389,"282":-0.05405062714184683,"283":0.16596166307411767,"284":-0.025122473965704294,"285":-0.10474930307019409,"286":0.050550645573035236,"287":0.015138930429101818,"288":0.01588913442221156,"289":0.03991030740782484,"290":0.10498378907298307,"291":-0.14567741252983077,"292":-0.020994618014025447,"293":-0.017323084067574636,"294":-0.0678807651103314,"295":0.093876870520691,"296":0.10107903315593048,"297":0.14722351483731708,"298":-0.1588528508931536,"299":-0.002432540910648198,"300":-0.05933827499000352,"301":-0.014590235030222427,"302":0.09523101773017019,"303":0.1648544097746299,"304":0.10600965181507459,"305":-0.059641324288978365,"306":0.06875528328225278,"307":-0.1006801378911576,"308":-0.016129812213047153,"309":-0.028399488520852757,"310":0.16888532801845973,"311":-0.1368622429663849,"312":-0.0021958569881238305,"313":0.05036438776858763,"314":0.0006010401875937836}},{"sx":1,"sy":1,"depth":315,"w":{"0":-0.013581153014260439,"1":-0.03637913228889399,"2":-0.0903514750924388,"3":-0.08545421516930429,"4":-0.25597167570769275,"5":-0.09777791345476826,"6":0.13680242006457038,"7":0.09891144862001727,"8":0.061035722464909015,"9":-0.08590190575494455,"10":-0.13574681257836546,"11":-0.14234557768598025,"12":0.08210101710017124,"13":-0.03573822516076774,"14":0.006791426023210828,"15":-0.08027167885630591,"16":0.08049530623229488,"17":-0.0592528004622677,"18":-0.08943653253218435,"19":0.11726217461176273,"20":-0.06467793616790561,"21":0.004272216765348575,"22":0.04984912950231591,"23":0.03266427810847398,"24":-0.07552823230003436,"25":-0.1347990703328786,"26":0.03199932800752179,"27":-0.012557395824685883,"28":0.003171608118154866,"29":-0.0046364654945718455,"30":0.039617691714766784,"31":-0.10119366794351994,"32":-0.08324689987273602,"33":0.1149605412292598,"34":-0.04358896794003803,"35":-0.03440989099147176,"36":-0.04269857048371297,"37":-0.018060068920894876,"38":-0.16176658294858481,"39":-0.10522672312730735,"40":-0.0423288980015027,"41":-0.10453176554774872,"42":0.05055461877372841,"43":0.009423411626734117,"44":0.0623477015903566,"45":-0.15569547107445986,"46":-0.049325075246454964,"47":-0.027991583508737056,"48":-0.01991031147014709,"49":-0.04415175982709843,"50":0.004276599416267941,"51":-0.04395907449660281,"52":-0.1015121487836452,"53":0.052489451335468715,"54":-0.037350649595823876,"55":0.029868775675424803,"56":0.09279237198264886,"57":0.02213415806224047,"58":-0.001981121663181032,"59":-0.11340878535381818,"60":-0.08475116352670177,"61":-0.011130380658289073,"62":0.04858941444805539,"63":-0.007652411553479337,"64":0.0115163187413921,"65":-0.04075642127754321,"66":-0.02474998909763478,"67":-0.17802742029196947,"68":0.031345131786583685,"69":0.0022577866272371905,"70":0.013575599257789327,"71":0.05143020358997105,"72":0.043932654471943784,"73":-0.07543815655216822,"74":-0.02984387148089981,"75":-0.03826979133422012,"76":0.007378360988633277,"77":0.0017984309222197862,"78":-0.007623546230574203,"79":0.012665786356151384,"80":-0.05526755274736137,"81":-0.06993144149615123,"82":0.029993512905546086,"83":-0.07569408325115229,"84":-0.03819194121365125,"85":0.00019326472287433993,"86":-0.06871824728543122,"87":-0.04701914099393356,"88":-0.012518030440433361,"89":0.04408079333361833,"90":-0.01789645249178452,"91":-0.0429252168838636,"92":0.08864077280309596,"93":-0.18498226986113228,"94":-0.011176353120803954,"95":-0.09696845281039101,"96":0.00041983389065109605,"97":-0.030349263082182002,"98":-0.08755823711048127,"99":0.23351696481817438,"100":-0.15060743853533226,"101":-0.07566422706494133,"102":-0.07128495802775296,"103":0.04861711863473593,"104":-0.03472955754618762,"105":0.01502465753117497,"106":-0.018069869956032044,"107":-0.03519209363151376,"108":0.006933115863924654,"109":-0.17361715371538625,"110":0.061938934557705265,"111":-0.023397508741517914,"112":-0.014831032626778698,"113":0.030354364368334056,"114":-0.03231385969984649,"115":-0.046405105881012605,"116":0.04560790200132043,"117":-0.07509042622541505,"118":0.023065786772083565,"119":0.0012775517949533029,"120":0.06085856131739075,"121":-0.06649482160688845,"122":-0.13309426334108507,"123":0.004434508724382089,"124":0.07734086398036433,"125":0.006376735588126052,"126":0.013835963612619278,"127":-0.0328624831662635,"128":0.007387907436429969,"129":-0.12517824422950155,"130":-0.03070997142165802,"131":0.02321715144919692,"132":0.05134016802007193,"133":0.05351988774971258,"134":0.11376969228321597,"135":-0.07793425333510946,"136":-0.03973024307030193,"137":-0.017269179144373602,"138":0.01725763802168039,"139":0.042386248348931926,"140":0.08336292061623689,"141":0.14004841755554143,"142":0.023390092271053937,"143":0.045142178260279574,"144":-0.09526950785558183,"145":0.02185413587952985,"146":-0.012399551005684616,"147":-0.02933474639728504,"148":0.044804317120373915,"149":-0.034110948755896715,"150":-0.016196951784185915,"151":-0.04581413687876556,"152":-0.03453992342118904,"153":0.004762507303309172,"154":-0.010117133356904584,"155":0.09018988596906458,"156":-0.004638638462865612,"157":-0.1503944879603889,"158":0.04310194420667278,"159":-0.02974780982603027,"160":0.021395364291478643,"161":-0.01046133989290139,"162":0.010535443083829515,"163":-0.21483568382883872,"164":0.0375524393360381,"165":0.14081436569911554,"166":0.022439698328093054,"167":0.10439216249140561,"168":-0.007058590061859887,"169":0.004031367990847004,"170":-0.026494783460530358,"171":-0.028087400057339593,"172":0.08398619769135332,"173":-0.030508860074571445,"174":0.07684803860906983,"175":-0.024143638575403647,"176":0.042911905219953014,"177":-0.07939447747018681,"178":0.10607914214554633,"179":0.096886646732617,"180":-0.02158084676010583,"181":0.02530675437895588,"182":-0.015382032479898557,"183":-0.01897323714229345,"184":-0.08806295688351412,"185":0.02457427911351921,"186":0.03635186037975022,"187":0.03282896141196818,"188":-0.09345135174652507,"189":-0.0337797444888224,"190":0.026351835106463675,"191":0.016263597935987605,"192":0.04866717697338431,"193":-0.03422274124757298,"194":-0.09677837021997931,"195":0.04132666036566664,"196":0.07023501497177419,"197":0.03877708212704728,"198":-0.09257627602524547,"199":0.24713613965526154,"200":-0.08935546601656567,"201":-0.015014010826018848,"202":0.022633290508640713,"203":0.056804991665743154,"204":0.0024286970328910042,"205":0.04491847462645912,"206":0.08080852070464732,"207":0.04606522273109407,"208":0.01171889603018836,"209":0.05256765795461566,"210":0.054338658317631974,"211":0.100582445393008,"212":-0.13971565586318185,"213":-0.04767537748089105,"214":-0.011960878772527416,"215":0.12157634293770463,"216":-0.036789347965269226,"217":-0.0230024028154108,"218":-0.08191865831586104,"219":-0.02448334691327651,"220":-0.08710644749121568,"221":0.0785167231103021,"222":-0.020916924381039162,"223":-0.03729409493880375,"224":0.020099563749797326,"225":0.047338790689468044,"226":-0.04847112219187216,"227":-0.1519168808482592,"228":0.06602131191119476,"229":0.06394557469547195,"230":0.05406993471496726,"231":-0.012978202189622026,"232":0.04673160763218803,"233":-0.08517099736318254,"234":-0.16575739774671847,"235":0.018988446884351706,"236":0.08625453947114028,"237":0.07568969464837935,"238":-0.03728490626296332,"239":-0.11012314449903272,"240":0.06655045918535378,"241":-0.11060640177672479,"242":-0.024435580913733195,"243":0.05033183516108635,"244":-0.04703523895197284,"245":-0.09320873460535982,"246":-0.07008972475323977,"247":0.05020909509223495,"248":-0.09051185034072572,"249":-0.047513360464139634,"250":0.08389558152935563,"251":0.06185546488590852,"252":-0.07149982966372727,"253":-0.014354826705550695,"254":-0.025668343637449794,"255":0.01170122061318514,"256":-0.10569766629791585,"257":0.07268384738239317,"258":-0.014631988828407307,"259":-0.009460072153202059,"260":0.02692359742205113,"261":0.10504596508393395,"262":0.17778648649392378,"263":-0.1565995653428391,"264":0.10638848660435307,"265":-0.017141304238664324,"266":0.030372848753525493,"267":0.06450861165833685,"268":0.0672311731321201,"269":0.17527103866618204,"270":-0.04311205507667064,"271":0.02837630853393153,"272":0.05152634561787201,"273":0.0039004356270427145,"274":0.0630975796925537,"275":0.012691222041785884,"276":0.14278753023396615,"277":-0.07712211114431188,"278":-0.06034181563138431,"279":0.004823942962256966,"280":0.022409066393053772,"281":0.042508853007918346,"282":0.09625660170871524,"283":-0.00812919479498584,"284":-0.08133317341352789,"285":0.05565626562411844,"286":0.06767645082143425,"287":-0.04034181217900304,"288":0.008490300954246329,"289":0.0935719006354925,"290":-0.05230663849792463,"291":0.04921934261509941,"292":0.017455646265631317,"293":0.06744300753087751,"294":-0.1815685293608556,"295":-0.054022908619173644,"296":0.026832140781766278,"297":0.01768779543393989,"298":-0.027192674530837315,"299":0.08135323301359833,"300":0.1374050612245673,"301":-0.008980538719269425,"302":0.0693727913155534,"303":-0.009823611808725641,"304":0.0221307621193845,"305":-0.04603303787178471,"306":0.03477842691238033,"307":0.05370925056896835,"308":-0.029341654046519314,"309":0.01965814783373343,"310":-0.10419404763494661,"311":0.2565324779675909,"312":-0.13908859971734777,"313":0.10945914506734024,"314":0.05286869110536515}},{"sx":1,"sy":1,"depth":315,"w":{"0":0.016902165972484867,"1":-0.09648320149407294,"2":-0.05369004767709431,"3":0.12386659274420725,"4":0.05178254771185276,"5":0.05267037589892656,"6":0.11650891130784766,"7":0.07432663293282986,"8":-0.02738297292936062,"9":0.031733487488207715,"10":0.06149363736498499,"11":-0.05715289512670452,"12":0.11202523623804243,"13":0.1033794448028089,"14":0.18717587412090075,"15":-0.08079883791168002,"16":0.09096302962288234,"17":0.11092460896995553,"18":-0.12679634951551946,"19":0.08918355241437283,"20":0.12723950774261697,"21":-0.07561415961522937,"22":-0.06062490190751211,"23":0.007554605600336963,"24":0.1569975845065583,"25":0.0172879279464721,"26":0.030063349953096757,"27":0.11001026053199185,"28":-0.07632254714340488,"29":0.1774605422776709,"30":0.09788881777372924,"31":0.1208668225664931,"32":0.017109234612057007,"33":0.030009661470605707,"34":0.06234487627614735,"35":0.03303556879924969,"36":-0.06317412324815337,"37":0.11549477383762483,"38":0.0987828336966769,"39":-0.023715126820237988,"40":-0.006073667071948905,"41":0.11301013927571596,"42":0.1400559727246622,"43":0.04396305026379532,"44":0.02510203590344224,"45":-0.08192279695095668,"46":0.0063172974432582725,"47":0.0745661806456958,"48":0.10320721923860078,"49":0.005336025698559263,"50":-0.025464816124524458,"51":0.05706636991001425,"52":-0.049222064210613564,"53":0.053503518697549456,"54":0.017904897252493588,"55":0.19995856750340799,"56":0.028287236940420058,"57":-0.04501935106806984,"58":0.10788853456436673,"59":0.04542015045913489,"60":0.02905945592009404,"61":0.08218895331537641,"62":0.05779625931239546,"63":-0.08864560467760031,"64":-0.03748191705136998,"65":0.16187120497453694,"66":0.005896807352484873,"67":0.03523129082554873,"68":0.18142246260294695,"69":0.1371554903359245,"70":-0.01002788748781452,"71":0.07102001704502878,"72":0.14524640415724385,"73":0.045904262981325876,"74":0.17643495991063377,"75":0.157811237416721,"76":0.04028815129160034,"77":-0.0440365682779807,"78":-0.1643085924910365,"79":0.2108011734565427,"80":0.16473918184886255,"81":-0.02789199408691425,"82":0.0658972959655704,"83":0.01337418016402696,"84":-0.05725083147524205,"85":0.04480703635121457,"86":0.17094364132276355,"87":0.10809063701319307,"88":0.025389838681947354,"89":0.1341641256444787,"90":-0.02201949041421811,"91":-0.08888111897602152,"92":-0.043487207181082496,"93":0.15842381269978997,"94":0.125318799669699,"95":0.09504943678326766,"96":-0.016782008285190612,"97":-0.005080440502667008,"98":-0.059176200675334585,"99":0.04414336910457908,"100":0.1370279517948031,"101":0.1854870745483911,"102":0.1434409754017241,"103":0.05237354508030958,"104":0.099332302911443,"105":-0.05272871846507986,"106":-0.04423012568115811,"107":0.06941834525328418,"108":0.0120523817273796,"109":-0.03179484888805638,"110":-0.0865487689262164,"111":0.13941996753911923,"112":-0.053119112011881346,"113":-0.05450065840372752,"114":-0.07082655913579944,"115":0.07499624248144988,"116":0.08334913764349125,"117":-0.027389931031408937,"118":0.0877214402775655,"119":-0.008394878191922523,"120":0.04800269886956241,"121":0.07108476091719756,"122":-0.029435163313437106,"123":0.02603043608219788,"124":-0.07289863338595895,"125":0.11861789660401227,"126":0.0355377165497356,"127":-0.07193427229604044,"128":-0.027130410114138998,"129":0.15092638786488569,"130":-0.01453352798745676,"131":-0.09797969885150035,"132":0.04338609701946126,"133":-0.0723116441433285,"134":-0.09129577498406938,"135":0.03927096832763063,"136":0.243726746167406,"137":0.0009183360810458368,"138":0.04395382947084755,"139":0.05147301219403055,"140":-0.07422253680937098,"141":-0.012091317194990174,"142":-0.1262506956394221,"143":0.03664261137901811,"144":-0.006621254538001117,"145":-0.0379788206418762,"146":0.1049158182723664,"147":0.06721302557769675,"148":-0.03887825828378307,"149":-0.041817947566901194,"150":-0.05899352906096148,"151":-0.020783584883860118,"152":0.0090501579158881,"153":0.04427250360268304,"154":0.10541752338296838,"155":-0.11538378803025327,"156":-0.03420718385450531,"157":0.12002445771564892,"158":0.04378541989101273,"159":-0.09138270550687333,"160":0.04974857383141753,"161":-0.015572904761798128,"162":0.008855785189863208,"163":0.03514065931854232,"164":0.06712477331721882,"165":-0.05623087386953066,"166":-0.00416329789806534,"167":0.16160751486221106,"168":-0.04630963877671759,"169":0.06688835247189158,"170":0.13813681015229856,"171":-0.02713685632505233,"172":0.10295533739424959,"173":0.02336321381477597,"174":0.08443676484317576,"175":0.026330485288927778,"176":0.054825884559837196,"177":0.06397585681077264,"178":-0.17509406163290442,"179":0.008944511596786078,"180":-0.02134557508778442,"181":0.039074109922469936,"182":-0.02950358746426539,"183":0.03979244770047055,"184":0.007889853001250087,"185":-0.12581172319748687,"186":-0.0028389148422638655,"187":-0.030496344247251672,"188":0.04220292821192975,"189":-0.05827869112460037,"190":-0.02976974187487289,"191":-0.14110027053380111,"192":-0.10285350604741203,"193":-0.22775695988601546,"194":0.06307594258885565,"195":0.021549058142662576,"196":-0.04308823708595318,"197":-0.0070871712588640905,"198":-0.09574537458892239,"199":-0.2292214329818649,"200":-0.19141441155780797,"201":-0.0035395770275688646,"202":0.13802584768935322,"203":0.05182983371452962,"204":-0.006450263070945032,"205":-0.048272268449717784,"206":-0.12678636599843268,"207":-0.2516734431287089,"208":0.04112196477748549,"209":0.1105195438548181,"210":0.06737647599560241,"211":0.03886552955330471,"212":-0.06591830062726714,"213":-0.12939712603551892,"214":-0.001733118745024372,"215":0.019802929669844524,"216":0.21279060403536715,"217":-0.018699578348690748,"218":0.027823418769134474,"219":0.05279798497616184,"220":-0.14063350172729944,"221":-0.10705103790868994,"222":-0.057758600688721004,"223":0.14987117629934282,"224":0.008478795270136959,"225":-0.03680620185767441,"226":0.029106844506352723,"227":-0.19079365206391777,"228":-0.21026825885364042,"229":0.09032787085979915,"230":0.09369423886310768,"231":-0.06339548942532128,"232":-0.08884240419765503,"233":-0.042792555717230445,"234":-0.362679113287479,"235":-0.29760704837558255,"236":0.025064594694358056,"237":0.03133111289023953,"238":-0.04131021104072827,"239":-0.15565485877250118,"240":0.03134877497994141,"241":-0.3143833836245445,"242":-0.3462262796003286,"243":-0.01270416562438161,"244":0.08010105480203114,"245":-0.11843808317966398,"246":-0.02043262277872706,"247":-0.24577535676707393,"248":-0.15993563273281386,"249":-0.3379942347417495,"250":-0.07199037471120563,"251":-0.004191289593098998,"252":-0.01795943285810335,"253":-0.18733494150708438,"254":-0.2657590915883051,"255":-0.058432960107453975,"256":-0.2626078622924878,"257":-0.14787805736679094,"258":0.06117264006662419,"259":-0.10892599660172474,"260":0.04261586749466545,"261":-0.1392866096745938,"262":0.1074737895306939,"263":-0.2155512975916336,"264":-0.05657025521514236,"265":0.050532211745598604,"266":0.08363517643875186,"267":-0.0910626404544266,"268":-0.2391146220462699,"269":0.11690645883069929,"270":-0.3934614497308462,"271":-0.07649209938072205,"272":0.06887996606816436,"273":0.010226694238895249,"274":-0.027941803727795124,"275":-0.17583704448685053,"276":0.14976509207095834,"277":-0.22283297675320624,"278":0.03195105370155372,"279":0.11631061391238195,"280":-0.042874107703322895,"281":-0.0028636817441315505,"282":-0.24746386098148188,"283":-0.049794681387516485,"284":-0.1905654419449082,"285":-0.04968223802876808,"286":0.11001547927305434,"287":0.012172521950291936,"288":-0.05904251386037899,"289":-0.11549981231253934,"290":-0.22042141521935046,"291":-0.20922185498545792,"292":0.07306145028861882,"293":0.17849633955058708,"294":-0.044890169766144496,"295":-0.07200281962676837,"296":-0.1314539405473199,"297":-0.24041356809037248,"298":-0.0010277980633893293,"299":0.1316169515872667,"300":0.10329893523564494,"301":0.019773480206071226,"302":-0.049566213865182306,"303":-0.0904379540081349,"304":-0.12938344388884118,"305":-0.141487452879663,"306":0.1954803505975269,"307":0.16142699775222805,"308":-0.016019066251198137,"309":0.1083439423105563,"310":-0.16141954716974405,"311":0.14736733887643882,"312":0.04461600310181572,"313":-0.016737912974862077,"314":0.20704363864558686}},{"sx":1,"sy":1,"depth":315,"w":{"0":0.008937293065464378,"1":0.06546230446296829,"2":0.01254641436619428,"3":0.04929030095760993,"4":0.061095353746213665,"5":0.016846023611736427,"6":0.058744588171867985,"7":-0.010515598196461149,"8":0.052361269914880215,"9":-0.007333280534039569,"10":0.01023402959731387,"11":-0.016282627018447363,"12":-0.0034748267907066424,"13":0.0787436052460752,"14":-0.04099027184976057,"15":0.08225625467059286,"16":-0.010873466282552402,"17":0.01680376400880042,"18":-0.1124820411895075,"19":-0.024641694647991173,"20":0.11674467412410669,"21":0.07315985558070773,"22":0.18079572005406094,"23":0.028211183499531667,"24":0.04699869039349122,"25":-0.04879929309999829,"26":-0.02664080493092023,"27":0.13571721248752774,"28":-0.026191679171727388,"29":-0.00666991779462398,"30":-0.009294807629074342,"31":-0.09261609914224604,"32":0.04989853747910992,"33":-0.001943853334905884,"34":-0.06945776058385603,"35":-0.036611849227097926,"36":0.08354524681935159,"37":-0.039799457632292486,"38":-0.020148719385270627,"39":-0.016645857137641024,"40":-0.036544224330317295,"41":-0.09714562848335997,"42":0.0836019427789456,"43":0.021470098325859693,"44":0.06647702774207229,"45":-0.019706057298797083,"46":0.07662623188617695,"47":0.005391256037803305,"48":0.07169071473021148,"49":-0.024263589480374385,"50":-0.11518152609482905,"51":0.08209454838551056,"52":-0.00345496261436619,"53":0.07314136171613286,"54":0.004438962051705832,"55":0.11430790243382587,"56":0.05020219427824319,"57":0.13921637031300518,"58":0.09723360962041427,"59":-0.038495105645862754,"60":0.17398799816208926,"61":-0.0018029257185482401,"62":0.04372756300968898,"63":-0.0716024589253477,"64":0.1116250093632818,"65":0.12687289450410458,"66":-0.012953532156611776,"67":0.14233173850259898,"68":0.00005564648365873653,"69":0.025433093208131155,"70":0.0581798352061281,"71":0.0646283591398871,"72":0.0014774235696309796,"73":-0.018854451090141253,"74":0.055385785302102926,"75":-0.019651142896706594,"76":-0.006994552533491751,"77":0.06626785287634913,"78":-0.06606554234970079,"79":0.0008038204447664601,"80":0.02909526450628751,"81":0.047836963874897706,"82":0.07547717794755282,"83":-0.049516533658566016,"84":0.05541284205079315,"85":-0.02686704577412042,"86":-0.056907290372020504,"87":0.0002530025152422009,"88":0.024162120441156308,"89":-0.04631037607525569,"90":-0.11301060136654319,"91":-0.07693117358848314,"92":0.054840358427782725,"93":0.0058756275265035894,"94":-0.059307183523461794,"95":-0.04630573037784523,"96":0.0004023036860162947,"97":-0.020726345475146492,"98":-0.05236506566332318,"99":0.020452378480532673,"100":-0.08606845854128116,"101":-0.039965357416012794,"102":0.13918582537260252,"103":-0.08287395679825213,"104":-0.03824426422052335,"105":-0.008216970790934848,"106":-0.05977286260461127,"107":0.18534764007490406,"108":-0.05443302633129043,"109":0.10713555954418766,"110":-0.07147224390898822,"111":-0.04050569904252703,"112":0.0112927470788338,"113":-0.011832861608141133,"114":0.0803129689359583,"115":0.047113156570818646,"116":0.08704053228034715,"117":-0.0008006147761107545,"118":0.019397234836542505,"119":-0.0318510509352179,"120":0.03890516900643796,"121":-0.04866188398039459,"122":-0.08681971354727373,"123":0.005379824455901049,"124":-0.034428927511834066,"125":0.06261529421640856,"126":-0.07790699725848635,"127":0.05861115347858046,"128":-0.011812342553220171,"129":-0.0615030363696704,"130":0.024348356373226816,"131":0.0060707092296284505,"132":0.014188878629787259,"133":-0.04999908182751388,"134":0.002671783411354181,"135":-0.0894499037594254,"136":-0.12128958803711501,"137":0.1608601686476311,"138":-0.04922217734421469,"139":0.03461246314863253,"140":-0.09880324748791747,"141":-0.02471979811389946,"142":-0.011540176312918222,"143":0.010275610399879601,"144":-0.0073559965656005005,"145":0.013159167163460118,"146":-0.07709677402435086,"147":-0.07430579985651957,"148":0.016377830863262544,"149":0.02329178517068921,"150":0.04336667595121149,"151":0.10959097950693923,"152":-0.11321392618222269,"153":-0.10098012039021527,"154":0.06536186439143185,"155":-0.02543566279079001,"156":-0.03158238530683721,"157":-0.030755807470762734,"158":0.08842759823048907,"159":0.08619801424546802,"160":-0.020655841073825797,"161":-0.0031665216747210918,"162":-0.028293351037505104,"163":-0.03205809186803556,"164":-0.040943445905278375,"165":-0.04955426509770918,"166":-0.021116472382801614,"167":0.0273082105175414,"168":0.06876409828567114,"169":0.02607677773468159,"170":0.003803182729406165,"171":-0.009654042817033026,"172":0.06587653502848047,"173":0.05973655623613967,"174":0.021941388533811453,"175":0.014439702835512188,"176":0.03361455057729904,"177":0.006927660500394646,"178":0.021962909671244972,"179":0.09664501968847158,"180":0.1452335735835609,"181":-0.05005242331648248,"182":0.006692410023822881,"183":-0.027684672236874316,"184":-0.03328034937179691,"185":-0.028386483825952925,"186":0.10583745691932384,"187":0.11251267138671715,"188":-0.054511792408882015,"189":-0.04710500733086185,"190":-0.014599723508008674,"191":0.04443494999624192,"192":-0.04977924250626835,"193":0.07827513018519994,"194":0.055601662304774445,"195":-0.09836168460626903,"196":-0.022887726967396393,"197":-0.027295300985313655,"198":0.00433448754445627,"199":0.06152312673168525,"200":0.06637810522044242,"201":-0.09290633491742697,"202":0.03761475322527266,"203":-0.0654008632892436,"204":0.06693257288716475,"205":-0.09985738916489728,"206":-0.033531507466827266,"207":0.058344009138226294,"208":-0.018858566570349324,"209":0.07317670012904683,"210":-0.11509644973824379,"211":0.008872892634617394,"212":-0.0054513718569057425,"213":-0.03209598016020544,"214":0.07055184118608282,"215":0.043551665633960804,"216":-0.06576668746807969,"217":0.03872904315497984,"218":-0.03483097898493996,"219":0.0691196822972631,"220":-0.13403995003491118,"221":0.10999107398648189,"222":0.030184210817863256,"223":0.03196208842729028,"224":0.06409073362145037,"225":0.06913183193202085,"226":0.027872080202863515,"227":-0.03204895222806052,"228":0.002800638860307974,"229":0.03278535398575895,"230":-0.03948343467831763,"231":0.05458424897790767,"232":0.08342845834817805,"233":-0.018329516905392463,"234":0.008870221613428373,"235":-0.15677093190879318,"236":-0.025605342145018924,"237":0.1458107282322641,"238":0.03568571948982167,"239":0.009507794841082728,"240":-0.04968852700603132,"241":-0.08971176955063738,"242":0.06467527772105248,"243":-0.0057842580191893676,"244":-0.03392202600359496,"245":0.021045097313259938,"246":-0.013689721388048049,"247":-0.14252395595719358,"248":-0.01797630023914759,"249":0.013954212663431092,"250":0.02747002291139578,"251":0.08927550746367009,"252":0.03953794860164272,"253":0.061987119634878456,"254":-0.019150267125700338,"255":0.02975160369310055,"256":-0.035874788856060096,"257":0.03662620751132375,"258":0.09680156718047023,"259":-0.0017364863560262414,"260":0.14022828827285283,"261":-0.08062520612927898,"262":0.020307629261729274,"263":0.09512935340652524,"264":0.0422431194815536,"265":0.05534042175813116,"266":0.07015851225844587,"267":0.06461947137604027,"268":0.02919140525923156,"269":-0.06455137795269825,"270":0.15033896719775952,"271":-0.0601367167241525,"272":-0.030551484791571312,"273":0.06145601504181363,"274":0.14203608665871492,"275":-0.12003312046203111,"276":-0.026298301154044922,"277":-0.0028737743608409296,"278":0.08670122672621339,"279":-0.08422789675111586,"280":-0.029462501799439784,"281":0.020182707358873488,"282":-0.05967444818085478,"283":0.023895139335910098,"284":-0.05135546138912168,"285":0.010412312590524487,"286":0.080799856094589,"287":0.16075062852989552,"288":-0.025818734712985462,"289":-0.050956918978974884,"290":-0.04585272461023909,"291":-0.02721166203367691,"292":0.06786281692993353,"293":-0.05940251404434173,"294":0.0676190512672356,"295":-0.031071504259246756,"296":-0.027454694146938737,"297":-0.015235835928222606,"298":0.11446851310923109,"299":0.035785793519724975,"300":-0.020434829465153112,"301":0.06302007175359083,"302":0.09517484243834408,"303":-0.009580470840920027,"304":0.029103161523487058,"305":-0.009638797317892356,"306":-0.025873614251759706,"307":0.06124310360640735,"308":0.07182250851174367,"309":0.07135828618472222,"310":-0.08050703660999602,"311":-0.17555259823097322,"312":-0.08073962183157775,"313":0.024349428969557906,"314":0.02172956487321271}},{"sx":1,"sy":1,"depth":315,"w":{"0":0.08497718283623516,"1":-0.08821781910380863,"2":0.07279190994726105,"3":0.11605087522066253,"4":0.05816978576995802,"5":-0.10477770830454752,"6":0.06133359573977169,"7":0.03995952253245707,"8":0.026354960640574014,"9":0.06545864427619418,"10":0.09204251635384361,"11":0.03027530171536081,"12":-0.07364020034944353,"13":-0.055126848564107024,"14":0.020116501977311005,"15":-0.005126704906523494,"16":0.14647279433867086,"17":0.08034717853449293,"18":0.11376581803232032,"19":-0.12767457335943855,"20":0.021838473771481258,"21":0.043707007323682524,"22":0.06641359991748494,"23":0.23657212415125714,"24":0.03532945580685193,"25":0.01615735103214232,"26":-0.003335925501151608,"27":0.10313643891999846,"28":-0.007861894116796641,"29":0.0262316142454512,"30":0.07619757478301427,"31":0.05066269484901515,"32":0.07727082618632865,"33":-0.18125737535328681,"34":-0.0659864440498835,"35":0.04754479597307386,"36":0.07961804515729332,"37":0.11866550707390242,"38":0.14517387383414507,"39":0.07222047385095846,"40":-0.10580691634704159,"41":-0.07442997573975473,"42":0.0005685927595741878,"43":0.008146534791710257,"44":0.05805115705574299,"45":0.1914019730703206,"46":0.0067332052369104,"47":-0.07544354649379767,"48":-0.08901916075910067,"49":0.040725821696949244,"50":0.0020002507055195433,"51":0.11119629889398343,"52":0.09012452537033223,"53":0.00873794554116904,"54":0.018740846139973247,"55":0.07084563579337835,"56":0.028230363974760458,"57":0.07628207044684009,"58":0.10380000635748567,"59":0.03605983491507329,"60":0.014042704135313758,"61":-0.04883701055970957,"62":-0.10181948460448277,"63":-0.059360812771242534,"64":-0.043179257275309,"65":0.10529318290876909,"66":0.1117452242470128,"67":0.05135702792253921,"68":-0.050700473005935366,"69":-0.13217402512923698,"70":0.03157286544036844,"71":0.11102385680859099,"72":0.07920283478867046,"73":0.10026354065921393,"74":0.06924255901055408,"75":0.06543788922501793,"76":-0.1019729405446086,"77":0.05574234270570142,"78":0.06234553938827003,"79":0.14393811419178665,"80":0.093569229570911,"81":0.08749902458589613,"82":-0.011229407130447967,"83":0.03811699689617938,"84":0.04803098644326308,"85":-0.031204298202705368,"86":0.1527830009956665,"87":0.1575821705089467,"88":0.022365025179206896,"89":0.09873880706783197,"90":-0.04054481207770705,"91":-0.0411332931975577,"92":0.08769008086426941,"93":0.1387079863024942,"94":0.1413986608107918,"95":0.029366875250662873,"96":0.029257570834501524,"97":0.08239107768680448,"98":0.011691927886761015,"99":0.037193009101208346,"100":-0.03642022189923394,"101":0.09136771645735191,"102":0.10548822217908232,"103":-0.03370379126038034,"104":0.010329582339859115,"105":0.033010893846738935,"106":-0.016552536420630634,"107":0.023832956973184348,"108":0.09921452186894988,"109":0.057828518588213224,"110":-0.08852284974321492,"111":0.03387620511948198,"112":-0.06998229185674762,"113":-0.17730272511904915,"114":0.08233866773226167,"115":0.1669411400236338,"116":0.12692260164872382,"117":-0.016741637396298324,"118":0.009648784034142115,"119":-0.06598105950819735,"120":-0.07053890580773645,"121":0.11377176242829187,"122":0.18028489325913571,"123":-0.00338128232787218,"124":0.10875375387443909,"125":0.10049062662608248,"126":-0.03660407119604728,"127":-0.005701394920653547,"128":0.14020594079526585,"129":0.06033895448395032,"130":0.1336037323549839,"131":-0.01900880460864182,"132":0.03693933676474241,"133":0.030238189840920762,"134":-0.10084762620745244,"135":0.09240834215219876,"136":0.06065387812492632,"137":0.13502895157005307,"138":0.023012745784409233,"139":-0.024051467046373808,"140":-0.05912680672299071,"141":-0.08503778808095239,"142":0.15772721022871095,"143":0.10125878915492553,"144":0.20141367268448646,"145":0.09221929914791523,"146":0.0006606856825777244,"147":0.012147166569150266,"148":0.09752203929446199,"149":0.06969138762430271,"150":0.16275315227135823,"151":0.06427053319068571,"152":0.01917441585174705,"153":-0.02144682688034258,"154":-0.08722807794045967,"155":-0.017004197568454317,"156":0.05679969522264999,"157":0.16837093172357276,"158":0.025532523485145786,"159":0.027526733549902222,"160":-0.1076669301130685,"161":-0.05115499797746546,"162":-0.13850031536996654,"163":0.09260949157581097,"164":0.07454957965740701,"165":0.0016254656449461412,"166":-0.13518308265005186,"167":0.03537082413778076,"168":-0.083033279323676,"169":-0.05700174418397313,"170":0.08482978927179904,"171":0.04762089587840371,"172":-0.0022300046542554674,"173":0.04602824357487884,"174":-0.07725995161549659,"175":-0.05466265242605541,"176":-0.06054155877918353,"177":-0.07011406740906895,"178":0.16723969204050285,"179":-0.005494298804825075,"180":-0.0881068282168769,"181":0.015099791485518698,"182":0.003184343896867911,"183":-0.10122302620168139,"184":0.06754019991857511,"185":0.23934816920864685,"186":-0.017102709866276006,"187":-0.011909928357519703,"188":0.020536942095699274,"189":-0.034823637734236745,"190":-0.14268537831611586,"191":-0.08619452297065651,"192":0.09317271315042294,"193":0.04300800219781947,"194":0.054205118235780905,"195":-0.0671253248206533,"196":-0.08581639737428623,"197":-0.07641318059012046,"198":-0.06839055482418412,"199":0.2493740911611492,"200":0.06941194962137905,"201":0.0013812574446782286,"202":0.02873101425685009,"203":0.007389309135562092,"204":-0.09992292476850627,"205":-0.046773509715387636,"206":0.13113326623739782,"207":-0.02634356553608279,"208":-0.04219171496966943,"209":-0.04427265964219362,"210":-0.07926556507356984,"211":0.00790804562895419,"212":0.036314884036486986,"213":0.07422336474229504,"214":-0.03627434701962683,"215":-0.020109725478491474,"216":-0.056213216340542306,"217":-0.10033361079372301,"218":-0.04898621890847628,"219":-0.01353685096896611,"220":0.026249031602796208,"221":0.01554892913428593,"222":0.007573888827614499,"223":0.016227876676894015,"224":0.036551223308386185,"225":-0.08651568246308375,"226":-0.13605088716123714,"227":0.007234996726908854,"228":-0.13597606709470583,"229":-0.05806854664663206,"230":-0.08611661057583606,"231":-0.055605222960677485,"232":-0.1656194901780969,"233":-0.12135417835723276,"234":-0.11027872112736588,"235":-0.14292969528158428,"236":0.026694030629112245,"237":-0.00014408364035930918,"238":-0.012906605382686287,"239":-0.17100785812642844,"240":-0.18133739461017867,"241":-0.20598376101437899,"242":-0.0657552758386214,"243":-0.04804479391939723,"244":-0.0684428138882485,"245":0.011101637796723868,"246":0.010957557752373913,"247":-0.13343087686142938,"248":-0.045850266260507054,"249":-0.0446838642739747,"250":0.0036682963457552566,"251":-0.08327457408337992,"252":0.03531639753459786,"253":-0.15087626992534992,"254":-0.12762358428269252,"255":-0.05120416010117595,"256":-0.04019773387928142,"257":-0.042779814876836506,"258":-0.0670792683877377,"259":0.025368366360586068,"260":-0.1296356819984322,"261":-0.24119943153490203,"262":0.06861691169868743,"263":-0.1450408426501128,"264":0.029453599370438795,"265":-0.12934710665580942,"266":-0.125332147183487,"267":-0.05362567681412038,"268":-0.26542116814378736,"269":-0.1548949678906004,"270":0.024220838685184386,"271":-0.12233299670220017,"272":-0.010935736967069324,"273":0.04949156112301553,"274":-0.2313382953965098,"275":-0.1453199965321401,"276":-0.0717700831097988,"277":-0.06650091787687684,"278":-0.040944657445414,"279":0.021853778187935383,"280":-0.14535256881139938,"281":-0.09510771679303637,"282":-0.22992419143425172,"283":0.02105371956927691,"284":-0.14366763167923213,"285":-0.0627706168955982,"286":-0.002248711224105625,"287":-0.020278321522444454,"288":-0.09373785216965902,"289":-0.21796797792560624,"290":-0.06829855127352694,"291":-0.16928751892079638,"292":-0.10023573614611828,"293":0.010233688270780207,"294":0.01949533827372733,"295":-0.021771250263610105,"296":-0.1644698083944562,"297":-0.06892674648021199,"298":-0.22714566161394775,"299":-0.04041906167274126,"300":0.026823924346208117,"301":0.037048775339787385,"302":-0.011646838294156197,"303":-0.16343138668261364,"304":-0.07729319097087937,"305":-0.11685829026099223,"306":-0.07761334026713541,"307":-0.006325624641730762,"308":-0.07450479419276596,"309":-0.02972738381848631,"310":-0.20347394179060252,"311":-0.2510835427538176,"312":-0.2639940403959118,"313":-0.093435122537892,"314":-0.010981729216461417}},{"sx":1,"sy":1,"depth":315,"w":{"0":-0.08223533119884972,"1":0.05597163078080474,"2":0.11948847585810767,"3":0.02329328150617509,"4":0.09554680952605417,"5":0.05488336923926129,"6":0.08912204155831802,"7":-0.04037784244598943,"8":-0.07236511384025235,"9":0.16374800122625718,"10":0.11392542123946857,"11":0.10610509925647957,"12":0.10229949513243576,"13":0.057576743362355555,"14":-0.03168423702185126,"15":0.04459420335723279,"16":0.016507663987153483,"17":0.09329121842716198,"18":0.15900660095538421,"19":0.02449055288905152,"20":0.0972765277890089,"21":-0.031614931932173615,"22":0.11522910193709572,"23":-0.04766927988805739,"24":0.06415655857791919,"25":0.11848343996573106,"26":-0.04419598935724215,"27":0.05780832531944398,"28":0.044093024530364455,"29":0.03500290222407287,"30":0.00931710739370429,"31":0.002255795800930513,"32":0.08329092917704672,"33":-0.11284265592770189,"34":0.02824482664375286,"35":0.08676194485115521,"36":0.007634562328395693,"37":-0.04029719783826678,"38":-0.08234182733829683,"39":-0.0017085818122573877,"40":0.08507199007348552,"41":0.0020569492470077656,"42":-0.016900054396295452,"43":-0.09714134796898635,"44":0.07199369953223321,"45":-0.03373276796957195,"46":0.008517984438957339,"47":0.05036879435211037,"48":0.04877803079793861,"49":0.02994719563638546,"50":-0.014686482030282876,"51":0.09234578185755611,"52":0.007850136937413378,"53":0.10881500007470724,"54":-0.12627496299938246,"55":0.0874834076989431,"56":-0.023091908708423908,"57":0.010476198985160305,"58":0.031070957836961392,"59":-0.01015807158006368,"60":-0.09214383855302961,"61":-0.06073121926483924,"62":-0.0645346396693278,"63":-0.05652985963489809,"64":0.1372376919424654,"65":0.014025547332733455,"66":0.07039915614394422,"67":0.0421880241122896,"68":0.006206153189879791,"69":-0.09378308650203641,"70":0.07590843443799095,"71":-0.17105821723148115,"72":-0.12196087511019504,"73":0.04958114800319929,"74":0.03123673582473879,"75":0.0713447036878708,"76":-0.08676556485993993,"77":0.07296955838328771,"78":-0.057006769462575865,"79":0.004205500431610104,"80":0.12289159855441467,"81":0.01828251808092039,"82":0.08511439539645783,"83":-0.06340028078827015,"84":0.15431312451473705,"85":0.08963794148978582,"86":-0.14046917446757395,"87":0.020198612898294832,"88":0.05217501416308531,"89":0.006977504103134373,"90":-0.014592510169706701,"91":0.04168267650132501,"92":0.10820529821878197,"93":-0.06856322625027132,"94":0.0037215285668395766,"95":-0.1417337294325015,"96":0.013649981969757767,"97":-0.044607202215607863,"98":0.04811188979687748,"99":0.14472883204877124,"100":-0.09851934268645321,"101":-0.048681394526838194,"102":-0.01719062075300435,"103":-0.008075881547822537,"104":-0.06919292254776852,"105":0.014032435837777623,"106":0.04989534393709339,"107":-0.006962132035855712,"108":-0.0624906690830249,"109":0.013806039033992705,"110":-0.06146142628820412,"111":0.05245264397343849,"112":-0.029444426000113443,"113":-0.002109926750383259,"114":-0.01745049131165014,"115":0.05931299913576173,"116":-0.01589720573082947,"117":-0.028015604701188187,"118":-0.0384573551729774,"119":-0.01435532342798997,"120":0.11919546071698248,"121":-0.1179902245769878,"122":-0.026435762507579418,"123":-0.02838031299488007,"124":0.03959666938893365,"125":0.027998835918870767,"126":0.048331672776685035,"127":0.05024927315848671,"128":-0.11234854153776139,"129":-0.029108970581618553,"130":-0.02285629291548977,"131":0.017212685168470583,"132":-0.035487049437411634,"133":0.14248537850979137,"134":0.092271846135101,"135":-0.20272174863624068,"136":-0.1058125779015825,"137":-0.09801781506409736,"138":-0.06629968216123032,"139":0.017024498687192226,"140":-0.03617133258682252,"141":-0.16780908545244494,"142":-0.06255500463909375,"143":-0.02054979165343888,"144":0.005134261582917263,"145":-0.012279891313997218,"146":0.0068079707987542745,"147":0.0004754259790462614,"148":-0.07058983195173879,"149":-0.09756609488480579,"150":-0.09278279499717526,"151":0.0266326923213024,"152":-0.055793763029665225,"153":-0.04041776066919092,"154":0.0838262831027314,"155":-0.044916957519977506,"156":0.007774498617672003,"157":-0.1859064768365761,"158":-0.040426955036902974,"159":-0.09769324142432263,"160":0.0892537432077209,"161":-0.11730597412772856,"162":-0.051890051876965416,"163":0.06328695249231854,"164":-0.14727679320243325,"165":-0.07625900690785534,"166":0.03576101873008672,"167":-0.08995096373507261,"168":-0.09164569087219832,"169":-0.10122298148981755,"170":-0.1097821619368329,"171":0.0461927434775817,"172":-0.021441684787017315,"173":-0.04590783176267645,"174":-0.07057642700538527,"175":-0.0271863417686424,"176":0.04379673627978837,"177":-0.09215568516703056,"178":0.09702808167607897,"179":-0.07826248444386964,"180":0.031086158212172366,"181":0.019878185803228074,"182":0.01990594580462899,"183":-0.02151119416230513,"184":-0.07473393213712502,"185":-0.0801628414430323,"186":-0.14432815134315957,"187":-0.13818327936334981,"188":-0.012508615426516633,"189":0.1053914279854391,"190":0.035657165777176904,"191":-0.053967096730998455,"192":-0.03735788764656324,"193":-0.06061120531562684,"194":0.052612265291271026,"195":-0.07768601866470166,"196":0.015174526301154179,"197":0.09397323960691129,"198":0.0493618513137508,"199":-0.3536674070850261,"200":0.046949676323300604,"201":-0.04130597936092536,"202":-0.07417853035301489,"203":-0.05292154332002723,"204":-0.01661551811383506,"205":0.1050247828834966,"206":-0.47668101010810104,"207":-0.010942967690326709,"208":-0.1483816473609694,"209":-0.04397839421592527,"210":-0.0927027204305178,"211":0.03940687012661061,"212":-0.08087153655130662,"213":-0.28823630254151944,"214":-0.16044225882465818,"215":-0.15722193797085557,"216":0.025437006141797076,"217":-0.025511570756370634,"218":-0.015060533367212572,"219":0.09612179169010032,"220":-0.31561644906077935,"221":-0.05636583670114626,"222":-0.08650606607229808,"223":0.051326826126419534,"224":0.05179940614096559,"225":-0.011272666742807441,"226":0.11507513390113003,"227":-0.06427554694052709,"228":0.15182062247146771,"229":-0.11565957495122477,"230":0.008929616002060766,"231":-0.025308661735612078,"232":0.052386767702152455,"233":-0.07971851374872001,"234":0.3576557786188462,"235":-0.0855824576160899,"236":-0.15980898875218807,"237":0.0292665085008734,"238":0.054062954657502396,"239":0.06063418297836466,"240":-0.08372193868997548,"241":0.39504474368443476,"242":-0.1595006741118574,"243":0.06289802278914215,"244":-0.061526770473899664,"245":-0.0008768616199961733,